tree
version=v4
num_class=1
num_tree_per_iteration=1
label_index=0
max_feature_idx=95
objective=regression
feature_names=samplingPoint_easting samplingPoint_northing purpose_name_label 116_N_Oxidised_UnC 111_Ammonia(N)_UnC 117_Nitrate-N_UnC 118_Nitrite-N_UnC 119_NH3_un-ion_Section82 9924_Oxygen_Diss_Section82 162_Alky_pH_4.5_UnS 85_BOD_ATU_UnC 135_Sld_Sus@105C_UnC 172_Chloride_Ion_UnC 241_Calcium_-_Ca_UnC 237_Magnesium-Mg_UnC 158_Hardness_UnC 182_SiO2_Rv_UnC 211_Potassium-_K_UnC 3683_N_Inorganic_UnC 9686_Nitrogen_-_N_UnC 114_N-Kjeldahl_UnC 113_N_Organic_UnC 76_Temp_Water_Section82 301_C_-_Org_Filt_UnC 61_pH_Section82 9901_O_Diss_%sat_Section82 183_Sulphate_SO4_UnC 143_Sld_NV@500C_UnC 461_DtrgtAncSyn_UnC 207_Sodium_-_Na_UnC 463_Dtrgt_NncSyn_UnC 177_Fluoride_-_F_UnC 6450_Cu_Filtered_UnC 6455_Zinc_-_as_Zn_UnC 749_Phenols_Mono_UnC 209_K-_Filtered_UnC 205_Na-_Filtered_UnC 9856_OrthophsFilt_UnC 7859_SO4dis_UnC 1183_WethPresPrec_UnC 239_Ca_Filtered_UnC 175_Cyanide_-_CN_UnC 235_Mg_Filtered_UnC 1181_WethPresTemp_UnC 82_O_Dissolved_Section82 68 Phosphate Phosphorus samplingPoint_notation_label Day_of_Month Week_of_Year Season_label Day_of_Week_label Month_of_Year_label longitude_label latitude_label isComplianceSample_label_0 isComplianceSample_label_1 determinand_unit_name_label_0 determinand_unit_name_label_3 determinand_unit_name_label_4 determinand_unit_name_label_5 determinand_unit_name_label_6 determinand_unit_name_label_8 determinand_unit_name_label_10 determinand_unit_name_label_11 determinand_unit_name_label_12 determinand_unit_name_label_13 determinand_unit_name_label_14 determinand_unit_name_label_15 determinand_unit_name_label_16 determinand_unit_name_label_17 determinand_unit_name_label_18 determinand_unit_name_label_19 determinand_unit_name_label_20 determinand_unit_name_label_25 determinand_unit_name_label_27 determinand_unit_name_label_28 determinand_unit_name_label_30 determinand_unit_name_label_35 determinand_unit_name_label_37 determinand_unit_name_label_38 determinand_unit_name_label_40 determinand_unit_name_label_41 determinand_unit_name_label_47 determinand_unit_name_label_48 determinand_unit_name_label_54 determinand_unit_name_label_56 determinand_unit_name_label_57 determinand_unit_name_label_58 determinand_unit_name_label_60 determinand_unit_name_label_61 determinand_unit_name_label_64 determinand_unit_name_label_65 determinand_unit_name_label_66 determinand_unit_name_label_67
feature_infos=[135954:653700] [1:653243] [0:25] [0:125] [0:493] [0:84.799999999999997] [0:2.9700000000000002] [0:1.51] [0:77.399999999999991] [0:1330] [0:6210] [0:162000] [0:44200] [0:15100] [0:1300] [0:37800] [0:28.300000000000001] [0:521] [0:33.899999999999999] [0:58.100000000000001] [0:11.5] [0:9.7599999999999998] [0:30] [0:54.5] [0:12.6] [0:383] [0:2700] [0:1620] [0:2.7000000000000002] [0:11000] [0:0.25] [0:4.4199999999999999] [0:980] [0:46000] [0:0.40000000000000002] [0:150] [0:1200] [0:3.4289999999999998] [0:1650] [0:16] [0:1040] [0:0.38664999999999999] [0:167] [0:6] [0:18.399999999999999] [0:3040] [0:280] [0:7.0999999999999996] [0:22989] [1:31] [1:53] [0:3] [0:6] [0:11] [1:22029] [0:22029] [0:1] [0:1] [0:1] [0:1] [0:1] [0:1] [0:1] [0:1] [0:1] [0:1] [0:1] [0:1] [0:1] [0:1] [0:1] [0:1] [0:1] [0:1] [0:1] [0:1] [0:1] [0:1] [0:1] [0:1] [0:1] [0:1] [0:1] [0:1] [0:1] [0:1] [0:1] [0:1] [0:1] [0:1] [0:1] [0:1] [0:1] [0:1] [0:1] [0:1]
tree_sizes=3082 3110 3105 3106 3130 3144 3126 3149 3122 3134 3135 3150 3132 3132 3147 3144 3128 3138 3154 3161 3149 3130 3163 3107 3127 3135 3137 3164 3158 3185 3149 3121 3159 3145 3185 3142 3156 3146 3129 3175 3103 3199 3102 3144 3167 3166 3193 3211 3072 3208 3169 3171 3172 3083 3109 3156 3147 3124 3102 3082 3059 3146 3150 3132 3047 3111 3098 3139 3017 2979 3129 2995 3000 3049 3103 3015 3115 2981 3105 3023 3128 3106 3187 3109 3008 3107 3044 3095 3047 3084 3090 3077 2964 2998 3078 3069 3072 3042 3102 3063

Tree=0
num_leaves=31
num_cat=0
split_feature=3 6 12 3 4 6 6 4 4 4 9 47 2 1 47 7 47 9 1 54 4 11 46 47 55 1 48 6 54 47
split_gain=13468.2 1585.89 398.94 368.963 295.458 242.289 199.302 126.037 105.371 98.7471 95.8568 89.4019 75.8257 90.4927 67.9783 53.6495 52.9296 52.4439 50.8305 52.5037 47.9139 46.4948 42.9141 42.1437 40.504 38.0038 36.7835 36.5875 34.5572 34.3649
threshold=0.99950000000000017 0.030450000000000001 28.750000000000004 0.19850000000000004 0.0076500000000000014 0.014037500000000003 0.059050000000000005 0.053050000000000007 0.49950000000000006 0.49050000000000005 7.1500000000000012 0.32050000000000006 4.5000000000000009 306415.00000000006 0.37100000000000005 0.00054500000000000013 1.0000000180025095e-35 1.0000000180025095e-35 263025.00000000006 16486.500000000004 0.0039500000000000013 2.8300000000000005 0.22450000000000003 0.17050000000000004 5350.5000000000009 281865.00000000006 19962.500000000004 0.027350000000000003 13538.500000000002 0.14050000000000004
decision_type=2 2 2 2 2 2 2 2 2 2 2 2 2 2 2 2 2 2 2 2 2 2 2 2 2 2 2 2 2 2
left_child=3 2 5 -1 -3 9 11 28 12 15 21 16 13 24 18 29 25 -11 -8 -20 -7 -10 26 -18 -4 -6 -22 -9 -5 -2
right_child=1 4 8 7 6 20 14 27 10 17 -12 -13 -14 -15 -16 -17 23 -19 19 -21 22 -23 -24 -25 -26 -27 -28 -29 -30 -31
leaf_value=0.014159445778531558 0.019216166772949104 0.015533152794431406 0.024328972926072084 0.016663982169328597 0.032802193311552472 0.015325648178908198 0.038461666495973823 0.02222135610416354 0.034050647504801371 0.048968700503780459 0.026157829622608833 0.045077577252822798 0.024290373644196197 0.02581425584301095 0.049618015827896836 0.022784800411453636 0.021231853491111816 0.021991546970586202 0.035901601739300598 0.030276849052871885 0.024659567455704117 0.050429090016557036 0.037932198324738479 0.031582010953622938 0.033331323895506491 0.029776138308303189 0.028337245236082307 0.029588725389790255 0.021341489233305075 0.027817651631660868
leaf_weight=7086333 179777 9707 5640 106433 85349 4714 46644 32221 2709 1851 4563 4491 41228 37893 3674 64706 9830 1180 59434 23024 145537 4812 2751 6559 43899 80786 33446 8524 18547 4768
leaf_count=7086333 179777 9707 5640 106433 85349 4714 46644 32221 2709 1851 4563 4491 41228 37893 3674 64706 9830 1180 59434 23024 145537 4812 2751 6559 43899 80786 33446 8524 18547 4768
internal_value=0.0157068 0.0271814 0.0240317 0.0142685 0.0327206 0.0225455 0.0332423 0.0189327 0.0286642 0.0205253 0.0375924 0.0311388 0.0278257 0.0294927 0.0362051 0.0203071 0.0307959 0.0384662 0.0358234 0.0343311 0.0252791 0.0445297 0.0255373 0.0253741 0.0323064 0.0313307 0.0253468 0.0237626 0.0173581 0.0194384
internal_weight=0 908972 579474 7.25206e+06 329498 438730 319791 165725 140744 252282 12084 187015 128660 87432 132776 249251 182524 3031 129102 82458 186448 7521 181734 16389 49539 166135 178983 40745 124980 184545
internal_count=8161030 908972 579474 7252058 329498 438730 319791 165725 140744 252282 12084 187015 128660 87432 132776 249251 182524 3031 129102 82458 186448 7521 181734 16389 49539 166135 178983 40745 124980 184545
is_linear=0
shrinkage=1


Tree=1
num_leaves=31
num_cat=0
split_feature=3 6 12 3 4 6 6 4 4 9 4 47 7 47 6 55 1 54 2 4 47 9 4 6 46 47 8 47 47 1
split_gain=10909.3 1289.41 327.145 298.86 235.523 218.569 139.503 102.949 85.9691 78.8432 73.8784 71.0068 69.3064 50.3618 49.3004 43.8325 42.3848 47.6189 41.4939 41.2621 40.9997 40.4762 38.3497 37.2197 35.4393 34.7821 33.4428 30.5356 33.8856 29.7387
threshold=0.99950000000000017 0.032050000000000002 27.725000000000005 0.19850000000000004 0.028400000000000005 0.016025000000000001 0.062050000000000008 0.048150000000000005 0.49950000000000006 7.1500000000000012 0.49950000000000006 0.33050000000000007 0.00062500000000000012 0.38050000000000006 0.0080100000000000015 12050.500000000002 278287.00000000006 16486.500000000004 11.500000000000002 0.028400000000000005 1.0000000180025095e-35 1.0000000180025095e-35 0.50050000000000006 1.0000000180025095e-35 0.24050000000000002 0.16050000000000003 8.1750000000000025 1.0000000180025095e-35 0.13050000000000003 281865.00000000006
decision_type=2 2 2 2 2 2 2 2 2 2 2 2 2 2 2 2 2 2 2 2 2 2 2 2 2 2 2 2 2 2
left_child=3 2 5 -1 -3 10 11 -5 12 22 14 20 -4 16 23 18 -8 -18 -14 -7 29 -12 -10 -2 27 -22 -9 -21 -29 -6
right_child=1 4 8 7 6 19 13 26 9 -11 21 -13 15 -15 -16 -17 17 -19 -20 24 25 -23 -24 -25 -26 -27 -28 28 -30 -31
leaf_value=-0.0013925761665196841 0.0079773696766379711 1.2978123302344202e-05 0.0088056939332113813 0.001399766532309301 0.015761363740720478 1.2438935319281821e-07 0.020636635330451555 0.0098623402961223808 0.034884506127692921 0.0094231355687903057 0.029347600629406813 0.027042878779918813 0.017366900602862747 0.030847865897088739 0.0057692213100200207 0.010415259333811567 0.0182747241281568 0.012370331838713923 0.0090010524649657142 0.0097250984398804478 0.0046481364772518411 0.005952356089231196 0.020330190568816218 0.0025699143584218707 0.021631368680653795 0.014175206870606544 0.0043601585555029321 0.0026705170140828112 0.011368376562721235 0.013033646564530571
leaf_weight=7086333 14101 9467 72826 121504 81451 4830 46951 21496 2922 4700 1841 4241 28530 3286 131707 29210 53812 18306 7484 140095 8341 1236 4759 130804 2327 7089 22725 13464 6712 78480
leaf_count=7086333 14101 9467 72826 121504 81451 4830 46951 21496 2922 4700 1841 4241 28530 3286 131707 29210 53812 18306 7484 140095 8341 1236 4759 130804 2327 7089 22725 13464 6712 78480
internal_value=0 0.0103272 0.00760816 -0.0012944 0.0155443 0.00625096 0.0160312 0.00290338 0.0116421 0.0196246 0.00454032 0.0142571 0.0109261 0.0186353 0.0043689 0.0132937 0.0182983 0.016776 0.0156284 0.0091086 0.0139479 0.01995 0.0258669 0.00309612 0.00937917 0.00902516 0.00703479 0.00920128 0.00556406 0.0144228
internal_weight=0 908972 597548 7.25206e+06 311424 447117 301957 165725 150431 12381 279689 179602 138050 122355 276612 65224 119069 72118 36014 167428 175361 3077 7681 144905 162598 15430 44221 160271 20176 159931
internal_count=8161030 908972 597548 7252058 311424 447117 301957 165725 150431 12381 279689 179602 138050 122355 276612 65224 119069 72118 36014 167428 175361 3077 7681 144905 162598 15430 44221 160271 20176 159931
is_linear=0
shrinkage=0.1


Tree=2
num_leaves=31
num_cat=0
split_feature=3 6 12 3 4 6 6 6 4 4 47 9 47 2 55 47 0 1 54 47 7 47 11 50 0 6 7 2 1 55
split_gain=8836.8 1060.38 265.213 233.925 200.366 176.347 126.493 88.7289 73.5141 68.5128 61.8442 61.0348 55.9827 54.5274 60.0356 50.1451 44.1259 38.2842 44.6894 37.8047 36.0759 35.2299 34.7159 33.6254 32.2292 31.5895 29.2214 28.2066 26.2933 27.5771
threshold=0.97100000000000009 0.027050000000000001 30.950000000000003 0.19850000000000004 0.0056500000000000014 0.048550000000000003 0.012050000000000002 0.012050000000000002 0.18050000000000002 0.49950000000000006 0.36140000000000005 7.1500000000000012 0.29050000000000004 4.5000000000000009 12350.500000000002 0.0038500000000000006 439445.50000000006 278287.00000000006 16104.500000000002 1.0000000180025095e-35 0.00067500000000000014 0.20050000000000004 2.8300000000000005 25.500000000000004 367611.50000000006 0.092050000000000007 1.0000000180025095e-35 17.500000000000004 281865.00000000006 5276.5000000000009
decision_type=2 2 2 2 2 2 2 2 2 2 2 2 2 2 2 2 2 2 2 2 2 2 2 2 2 2 2 2 2 2
left_child=3 2 6 -1 -3 12 8 16 20 13 15 22 19 14 24 17 -5 25 -19 28 -2 -17 -11 -8 -4 -7 -27 -10 29 -6
right_child=1 4 9 7 5 10 23 -9 27 11 -12 -13 -14 -15 -16 21 -18 18 -20 -21 -22 -23 -24 -25 -26 26 -28 -29 -30 -31
leaf_value=-0.0012533185752298015 0.0028462941185622339 -0.00017525959653402523 0.0036118386084206099 0.00074057826046376317 0.010618027036910491 0.01656432726589066 0.0059084361160802283 0.007877917156907728 0.010570697875712673 0.014405539297040335 0.026994379687469983 0.0085023198663907919 0.022491196902668393 0.006667637891509118 0.0080664681939091286 0.0042675389161632533 0.0055475119440013786 0.01612176033712279 0.011163261764499043 0.0066960772637810993 0.0064832966743148812 0.015390529070223211 0.028810309227127739 0.0085404794986522377 0.014566175085994452 0.030611552864518516 0.019725541927323714 0.026245662864111702 0.010375396752290655 0.014391599975629988
leaf_weight=7086333 188751 10524 2881 113054 30916 48289 102531 26496 5024 2639 4991 4316 4575 36915 31543 6271 22978 71542 24367 16267 31879 5216 4571 92172 39646 2872 17436 1488 72709 51838
leaf_count=7086333 188751 10524 2881 113054 30916 48289 102531 26496 5024 2639 4991 4316 4575 36915 31543 6271 22978 71542 24367 16267 31879 5216 4571 92172 39646 2872 17436 1488 72709 51838
internal_value=0 0.00927625 0.00647361 -0.00116729 0.0134241 0.0138247 0.00528411 0.00258374 0.00368088 0.0105695 0.0160174 0.0179077 0.0115737 0.00980739 0.0113722 0.0157061 0.00155255 0.0161521 0.014862 0.0112829 0.00337181 0.00931825 0.0235379 0.00715444 0.0138241 0.017956 0.0212651 0.0141524 0.0117628 0.0129818
internal_weight=0 912169 544356 7.24886e+06 367813 357289 421845 162528 227142 122511 180984 11526 176305 110985 74070 175993 136032 164506 95909 171730 220630 11487 7210 194703 42527 68597 20308 6512 155463 82754
internal_count=8161030 912169 544356 7248861 367813 357289 421845 162528 227142 122511 180984 11526 176305 110985 74070 175993 136032 164506 95909 171730 220630 11487 7210 194703 42527 68597 20308 6512 155463 82754
is_linear=0
shrinkage=0.1


Tree=3
num_leaves=31
num_cat=0
split_feature=3 6 12 3 6 4 47 6 6 1 0 4 4 2 1 7 8 9 3 4 47 46 47 11 48 9 1 47 47 9
split_gain=7158.61 858.833 224.416 195.707 163.154 151.188 78.8801 76.3781 73.1051 58.6672 55.8479 48.0388 42.3889 45.4189 39.268 38.7692 52.0995 37.1521 35.4692 34.9107 33.4489 31.8052 31.7398 31.6482 29.8032 28.8959 28.7472 25.9131 26.0301 25.1924
threshold=0.99950000000000017 0.034450000000000008 26.050000000000004 0.19850000000000004 0.016250000000000004 0.0076500000000000014 0.34150000000000008 0.017050000000000006 0.066050000000000011 300470.50000000006 283862.50000000006 0.49950000000000006 0.49950000000000006 4.5000000000000009 448331.00000000006 0.00030500000000000004 9.8950000000000014 25.250000000000004 1.0050000000000001 0.014100000000000003 0.15050000000000002 0.26400000000000007 0.0038500000000000006 2.8300000000000005 20065.500000000004 1.0000000180025095e-35 391342.00000000006 1.0000000180025095e-35 0.14550000000000002 142.50000000000003
decision_type=2 2 2 2 2 2 2 2 2 2 2 2 2 2 2 2 2 2 2 2 2 2 2 2 2 2 2 2 2 2
left_child=3 2 4 -1 11 -3 8 14 27 10 -4 15 13 -12 29 20 -17 23 -10 -6 -2 24 26 -14 -21 -13 -20 -7 -29 -5
right_child=1 5 9 7 19 6 -8 -9 18 -11 12 25 17 -15 -16 16 -18 -19 22 21 -22 -23 -24 -25 -26 -27 -28 28 -30 -31
leaf_value=-0.0011279866783743616 0.0018580348792895036 -7.6347689900846703e-05 0.0019611072042092724 0.0023383796097670353 -0.00071590776551501206 0.01206580992312224 0.023375279439637006 0.0083425260740138743 0.037635970213652954 0.0073234814153459284 0.012734090593721922 0.024636118826227009 0.013307987430405009 0.0075231623102596391 -0.00011177094125719699 0.0077132099656251913 0.0034499540491083067 0.0088174712715585173 0.016320792133066725 0.006940922500891962 0.010631977570201418 0.019765541714448755 0.0076345573355513473 0.030148334770842451 0.010343036089317598 0.0041820486894901558 0.012480946084351498 0.0028933130146801241 0.011445060672788767 0.0071976139264644983
leaf_weight=7086333 120902 8754 6206 63084 5044 152074 7516 18841 690 73456 53610 1727 1738 24312 70959 38756 110091 2356 73562 138996 4507 2166 5705 3118 31604 1151 26528 6429 7974 12841
leaf_count=7086333 120902 8754 6206 63084 5044 152074 7516 18841 690 73456 53610 1727 1738 24312 70959 38756 110091 2356 73562 138996 4507 2166 5705 3118 31604 1151 26528 6429 7974 12841
internal_value=0 0.0083656 0.00626571 -0.00104854 0.00512042 0.0128651 0.013269 0.0023484 0.0129907 0.00942746 0.0111195 0.00360353 0.0117871 0.0111083 0.00157953 0.00346866 0.00456 0.0191217 0.0150369 0.00748463 0.00217336 0.00772405 0.0148895 0.024121 0.00757117 0.0164559 0.0153031 0.0116819 0.00762786 0.00316021
internal_weight=0 908972 619740 7.25206e+06 454944 289232 280478 165725 272962 164796 91340 277134 85134 77922 146884 274256 148847 7212 106485 177810 125409 172766 105795 4856 170600 2878 100090 166477 14403 75925
internal_count=8161030 908972 619740 7252058 454944 289232 280478 165725 272962 164796 91340 277134 85134 77922 146884 274256 148847 7212 106485 177810 125409 172766 105795 4856 170600 2878 100090 166477 14403 75925
is_linear=0
shrinkage=0.1


Tree=4
num_leaves=31
num_cat=0
split_feature=3 6 6 4 4 6 6 4 47 47 47 9 50 9 4 2 11 47 47 47 47 1 54 4 29 11 6 6 1 54
split_gain=5798.48 701.839 211.997 165.435 135.448 141.159 128.791 69.9785 58.2687 46.6979 44.463 42.9886 41.6495 41.5638 45.5818 42.6509 37.2039 33.3846 30.5408 29.9172 34.128 29.4355 39.3634 29.1699 27.8546 26.6821 24.7361 27.34 23.3898 27.2547
threshold=0.99950000000000017 0.024650000000000002 1.0000000180025095e-35 0.030050000000000004 0.028400000000000005 0.046050000000000008 0.010050000000000002 0.081050000000000025 0.24050000000000002 0.28050000000000008 0.39050000000000007 122.50000000000001 26.500000000000004 1.0000000180025095e-35 0.49950000000000006 8.5000000000000018 2.8300000000000005 1.0000000180025095e-35 1.0000000180025095e-35 0.0038500000000000006 0.22650000000000003 278287.00000000006 16486.500000000004 0.028400000000000005 8.6050000000000022 1.0000000180025095e-35 0.098550000000000013 0.10050000000000002 304651.00000000006 17343.500000000004
decision_type=2 2 2 2 2 2 2 2 2 2 2 2 2 2 2 2 2 2 2 2 2 2 2 2 2 2 2 2 2 2
left_child=3 2 7 23 -3 9 -4 25 12 17 19 -5 -8 14 -9 -15 -16 28 -14 21 -21 26 -23 -1 -18 -2 -7 -28 -6 -30
right_child=1 4 6 11 5 10 8 13 -10 -11 -12 -13 18 15 16 -17 24 -19 -20 20 -22 22 -24 -25 -26 -27 27 -29 29 -31
leaf_value=-0.0010276809163817869 0.0083694949575980181 -4.0506687932993402e-05 0.0021769925913359086 0.0020512926181136554 0.010225804879794752 0.013492496929598473 0.0042678183088719276 0.012065359354625889 0.016906110754954223 0.018506009080756225 0.02275841957115201 0.007302515940014233 0.0076052423734921971 0.012659954452879978 0.012271375149313264 0.0020483126115355631 0.02783765926628903 0.0048039359087709375 0.0027826409592648653 0.0038886886094072165 0.014170783887229161 0.012994919489471349 0.0083747775577128463 0.00054676232657102522 -0.0094723838164309914 0.0025513870740006116 0.028413330122028048 0.016321592351809574 0.0086821918189921264 0.0031533804388607107
leaf_weight=7028310 33329 11482 184060 84978 101555 56879 130530 12565 4540 5113 4459 19092 92729 11738 2813 5592 5268 18650 15298 7895 5461 77397 24209 119678 208 10324 2124 15631 58607 10516
leaf_count=7028310 33329 11482 184060 84978 101555 56879 130530 12565 4540 5113 4459 19092 92729 11738 2813 5592 5268 18650 15298 7895 5461 77397 24209 119678 208 10324 2124 15631 58607 10516
internal_value=0 0.00752904 0.00506581 -0.000943689 0.0106636 0.01098 0.00417253 0.0097284 0.00568344 0.00907573 0.0128881 0.00301465 0.00546986 0.012855 0.0158626 0.00923582 0.0216188 0.00882106 0.0069223 0.0126559 0.00809283 0.0130017 0.0118941 -0.00100132 0.0264205 0.0069935 0.0145096 0.0177681 0.00926001 0.00784107
internal_weight=0 908972 508994 7.25206e+06 399978 388496 427157 81837 243097 194441 194055 104070 238557 38184 20854 17330 8289 189328 108027 189596 13356 176240 101606 7.14799e+06 5476 43653 74634 17755 170678 69123
internal_count=8161030 908972 508994 7252058 399978 388496 427157 81837 243097 194441 194055 104070 238557 38184 20854 17330 8289 189328 108027 189596 13356 176240 101606 7147988 5476 43653 74634 17755 170678 69123
is_linear=0
shrinkage=0.1


Tree=5
num_leaves=31
num_cat=0
split_feature=3 6 6 4 4 6 6 4 47 47 47 47 50 9 9 11 15 4 47 11 29 47 8 8 29 10 1 54 1 77
split_gain=4697.83 592.25 178.316 111.718 111.374 120.137 107.115 57.9396 50.2976 46.4184 40.7389 38.9975 38.335 33.7946 33.7638 42.22 45.9068 40.9269 30.9428 30.1432 24.177 23.5492 23.5265 26.236 22.5095 22.4001 22.2334 30.3137 30.2768 22.0087
threshold=0.88050000000000017 0.024050000000000005 1.0000000180025095e-35 0.030050000000000004 0.0056500000000000014 0.052150000000000009 0.0090500000000000008 0.065050000000000011 0.22050000000000003 0.26050000000000006 1.0000000180025095e-35 1.0000000180025095e-35 25.500000000000004 139.50000000000003 1.0000000180025095e-35 1.0000000180025095e-35 47.150000000000013 0.49950000000000006 0.41112500000000002 2.8300000000000005 1.0000000180025095e-35 0.097050000000000011 9.8950000000000014 1.0000000180025095e-35 8.6050000000000022 1.6150000000000004 280277.00000000006 18028.500000000004 140384.50000000003 1.0000000180025095e-35
decision_type=2 2 2 2 2 2 2 2 2 2 2 2 2 2 2 2 2 2 2 2 2 2 2 2 2 2 2 2 2 2
left_child=3 2 7 29 -3 9 -4 -2 10 11 12 26 -8 -5 17 20 -17 -9 25 -19 -16 -12 23 -14 -21 -7 28 -28 -6 -1
right_child=1 4 6 13 5 18 8 14 -10 -11 21 -13 22 -15 15 16 -18 19 -20 24 -22 -23 -24 -25 -26 -27 27 -29 -30 -31
leaf_value=-0.00093578835949301739 0.005905132246017096 -0.00020505641024758212 0.0017162639425108315 0.0017292499095139737 0.0073993841743507961 0.010741160833545477 0.0039918240726262112 0.010705826623141339 0.014320902182146357 0.01619252215242058 -0.000328274717322101 0.0040038525116901785 0.0029917229956005079 0.0068953195530367887 0.013093251938286305 -0.0043813053022253327 0.011738839013090824 0.01107252630620837 0.021272436315162509 0.025012944212328775 -0.0016222527025728621 0.0049744617066343208 0.0050705798811291362 0.009049821266623348 -0.0085251453672893912 0.013158359122343614 0.0081932416687235318 0.0032662607993945757 0.010836447982120386 5.5924471146504726e-05
leaf_weight=6908700 38761 11369 172553 80083 41357 94910 117288 15334 5575 7373 22944 20805 8497 15041 11546 4360 2970 2854 3463 5282 1236 13189 49905 45050 208 64318 82685 14709 67393 231272
leaf_count=6908700 38761 11369 172553 80083 41357 94910 117288 15334 5575 7373 22944 20805 8497 15041 11546 4360 2970 2854 3463 5282 1236 13189 49905 45050 208 64318 82685 14709 67393 231272
internal_value=0 0.00670669 0.00446013 -0.000858309 0.00955381 0.00983327 0.00365153 0.00872103 0.00492391 0.00838379 0.00471997 0.0081301 0.00522948 0.00254611 0.0112135 0.00820065 0.00215032 0.0137727 0.0119209 0.0194087 0.0116703 0.00160729 0.00663266 0.0080885 0.0237423 0.0117176 0.00854654 0.00744914 0.00952935 -0.000903666
internal_weight=0 925934 517552 7.2351e+06 408382 397013 435001 82551 262448 234322 256873 226949 220740 95124 43790 20112 7330 23678 162691 8344 12782 36133 103452 53547 5490 159228 206144 97394 108750 7.13997e+06
internal_count=8161030 925934 517552 7235096 408382 397013 435001 82551 262448 234322 256873 226949 220740 95124 43790 20112 7330 23678 162691 8344 12782 36133 103452 53547 5490 159228 206144 97394 108750 7139972
is_linear=0
shrinkage=0.1


Tree=6
num_leaves=31
num_cat=0
split_feature=3 6 12 3 6 4 7 55 6 46 7 4 0 8 47 47 3 50 9 12 4 48 3 46 12 6 3 48 48 8
split_gain=3806.68 470.445 142.573 111.969 92.2286 80.9706 52.6769 46.6401 45.0039 35.5798 35.502 37.1798 31.8384 30.8979 29.0241 26.0307 25.8309 25.1628 25.027 22.2476 21.3984 20.7133 19.7532 19.3816 19.2498 18.7151 17.942 17.8357 17.718 17.7077
threshold=0.99950000000000017 0.035350000000000006 32.650000000000013 0.19850000000000004 0.018007142857142854 0.0021500000000000004 0.00092500000000000015 12050.500000000002 0.082650000000000015 0.33200000000000007 0.00056500000000000007 0.49050000000000005 278352.00000000006 9.5750000000000011 0.19019999999999998 0.17050000000000004 1.0050000000000001 23.500000000000004 1.0000000180025095e-35 31.750000000000004 1.0000000180025095e-35 10323.500000000002 3.6550000000000007 0.30650000000000005 29.350000000000005 0.0060300000000000015 3.9450000000000007 20065.500000000004 20065.500000000004 7.8550000000000013
decision_type=2 2 2 2 2 2 2 2 2 2 2 2 2 2 2 2 2 2 2 2 2 2 2 2 2 2 2 2 2 2
left_child=3 2 4 -1 10 -3 14 12 9 19 11 15 -4 -12 24 25 -10 -14 -13 28 -6 -18 -21 27 -5 -2 -19 -22 -7 -8
right_child=1 5 7 6 20 8 29 -9 16 -11 13 18 17 -15 -16 -17 21 26 -20 22 23 -23 -24 -25 -26 -27 -28 -29 -30 -31
leaf_value=-0.00082470949561578861 0.00073729543139292367 -7.9215424990664723e-05 0.00055156243482522912 0.00051565649380881575 -0.00112287147696068 0.0075334146437132715 0.009256451349975851 0.005393013567532739 0.03141931782678644 0.020735102147664292 0.0074551678273879502 0.021097459971108221 0.0077587845096833271 0.0033248654175084325 0.012584825186748805 0.0092422289662505621 0.010272048425224972 0.0084164063009928153 -0.0010862087049507395 0.0070486392919161178 0.0052623835893761753 0.013677186322403685 0.011238895457552 0.016928105704288588 0.0049212051009785394 0.0025988885701306017 0.013181191006241898 0.0079805900054067975 0.010520781349344869 0.0038765967333240052
leaf_weight=7086333 90652 8549 4120 127026 4509 104484 9976 61801 673 2560 25068 1698 36500 65271 2144 4862 41501 12142 726 14296 133636 31365 52803 1567 10758 133581 22636 29461 24511 15821
leaf_count=7086333 90652 8549 4120 127026 4509 104484 9976 61801 673 2560 25068 1698 36500 65271 2144 4862 41501 12142 726 14296 133636 31365 52803 1567 10758 133581 22636 29461 24511 15821
internal_value=0 0.00610037 0.00457956 -0.00076462 0.00378326 0.00950355 0.0018048 0.00742952 0.00980453 0.00902218 0.00278966 0.0021336 0.00909878 0.00447098 0.00103929 0.00200325 0.0119179 0.00959282 0.0144533 0.00886927 0.00567362 0.0117378 0.0103461 0.00585973 0.000859636 0.00184629 0.0115177 0.00575339 0.00810106 0.00595705
internal_weight=0 908972 628230 7.25206e+06 491031 280742 165725 137199 272193 198654 321858 231519 75398 90339 139928 229095 73539 71278 2424 196094 169173 72866 67099 164664 137784 224233 34778 163097 128995 25797
internal_count=8161030 908972 628230 7252058 491031 280742 165725 137199 272193 198654 321858 231519 75398 90339 139928 229095 73539 71278 2424 196094 169173 72866 67099 164664 137784 224233 34778 163097 128995 25797
is_linear=0
shrinkage=0.1


Tree=7
num_leaves=31
num_cat=0
split_feature=3 6 12 4 9 6 7 8 47 55 4 4 46 7 9 2 47 47 9 1 4 6 12 1 54 7 12 48 47 1
split_gain=3083.68 408.984 113.104 71.0283 69.1905 61.3134 61.0855 45.0969 38.4101 35.7541 34.9576 32.053 27.0166 25.0131 23.7467 42.4507 23.3217 31.7584 22.8372 22.0873 20.7064 19.7552 17.8754 16.8088 18.5964 16.3746 15.4526 15.1996 14.5144 14.4998
threshold=0.79050000000000009 0.028050000000000002 35.050000000000004 0.028400000000000005 140.50000000000003 0.05315000000000001 0.00050500000000000013 9.5850000000000026 0.18050000000000002 12050.500000000002 0.49050000000000005 0.030050000000000004 0.34150000000000008 0.00015500000000000003 1.0000000180025095e-35 11.500000000000002 0.32050000000000006 0.0038500000000000006 1.0000000180025095e-35 391342.00000000006 0.49950000000000006 0.0080100000000000015 32.050000000000004 278287.00000000006 18105.500000000004 3.500000000000001e-05 9.7050000000000018 16759.500000000004 0.16050000000000003 443282.50000000006
decision_type=2 2 2 2 2 2 2 2 2 2 2 2 2 2 2 2 2 2 2 2 2 2 2 2 2 2 2 2 2 2
left_child=4 2 6 -3 11 12 8 -8 10 14 13 -1 22 -2 20 -16 17 19 -12 26 -4 -15 -5 -24 -25 -22 27 -7 -19 -9
right_child=1 3 9 5 -6 16 7 29 -10 -11 18 -13 -14 21 15 -17 -18 28 -20 -21 25 -23 23 24 -26 -27 -28 -29 -30 -31
leaf_value=-0.00074016843638452902 0.00070541870425718173 -3.2222060033011369e-05 0.0091096844556882734 0.0063268764259039288 0.0048442741364811762 0.0081868218279578294 0.0070379533030495867 0.0040498079455076321 0.0091664948362495929 0.0046471526612921086 0.019149483489831292 0.0013390286179799627 0.018835006672453192 0.0013206926755555284 0.0085054894967892935 -0.00010156201848624738 0.016197421885793473 -0.00089747602728814714 -0.00043381352003651896 0.0077667164539807808 0.020373677280207128 0.0035787572248230318 0.010654343268975859 0.0084605439868710042 0.003085393457979362 0.0069226728025940975 0.011854197245854309 0.011595660644086044 0.0073386614550180257 0.0014712395309705636
leaf_weight=7123880 113567 10571 27425 132786 22429 35319 50243 108327 7586 50521 1926 74924 1934 65992 21192 7854 5404 3897 862 37210 3137 93837 21482 24935 8676 1272 51019 20774 4745 27304
leaf_count=7123880 113567 10571 27425 132786 22429 35319 50243 108327 7586 50521 1926 74924 1934 65992 21192 7854 5404 3897 862 37210 3137 93837 21482 24935 8676 1272 51019 20774 4745 27304
internal_value=0 0.00538828 0.0037491 0.00804316 -0.000701251 0.00828833 0.00306959 0.00447874 0.00214657 0.00661377 0.00195375 -0.000718528 0.00707621 0.00184014 0.00824576 0.00617815 0.00974113 0.00951304 0.0130947 0.00986563 0.0101323 0.00264642 0.00695517 0.00846948 0.00707306 0.0164931 0.0105948 0.00944928 0.00362468 0.00353071
internal_weight=0 939797 581045 358752 7.22123e+06 348181 469644 185874 283770 111401 276184 7.1988e+06 189813 273396 60880 29046 158368 152964 2788 144322 31834 159829 187879 55093 33611 4409 107112 56093 8642 135631
internal_count=8161030 939797 581045 358752 7221233 348181 469644 185874 283770 111401 276184 7198804 189813 273396 60880 29046 158368 152964 2788 144322 31834 159829 187879 55093 33611 4409 107112 56093 8642 135631
is_linear=0
shrinkage=0.1


Tree=8
num_leaves=31
num_cat=0
split_feature=3 6 7 4 3 47 4 8 6 6 9 47 6 3 0 47 4 3 17 3 11 12 29 48 54 4 47 1 47 1
split_gain=2500.48 313.102 101.93 89.6127 77.0476 56.3721 53.1996 50.7582 42.9891 40.4879 37.3986 31.9932 28.7018 27.2461 26.6674 26.1899 23.7167 21.3742 18.938 18.7835 17.6639 17.0725 16.9073 16.3734 15.6348 15.3977 15.3703 15.3158 14.1989 13.6328
threshold=0.99950000000000017 0.036550000000000006 0.00065500000000000009 0.49950000000000006 0.19850000000000004 0.20850000000000002 0.0076500000000000014 9.5450000000000017 0.013050000000000001 0.022990000000000003 1.0000000180025095e-35 0.39050000000000007 0.083850000000000022 3.2150000000000003 439445.50000000006 1.0000000180025095e-35 1.0000000180025095e-35 1.0050000000000001 4.3550000000000013 2.8250000000000006 24.650000000000002 24.150000000000002 8.6050000000000022 5539.0000000000009 2634.5000000000005 0.50050000000000006 0.33650000000000008 381200.00000000006 0.10250000000000001 398068.50000000006
decision_type=2 2 2 2 2 2 2 2 2 2 2 2 2 2 2 2 2 2 2 2 2 2 2 2 2 2 2 2 2 2
left_child=4 2 3 5 -1 8 -3 13 23 14 22 12 18 -4 -6 16 -10 -14 -8 -9 -7 -21 25 -2 -18 -5 -15 -19 -17 -26
right_child=1 6 7 10 9 20 11 19 15 -11 -12 -13 17 26 -16 28 24 27 -20 21 -22 -23 -24 -25 29 -27 -28 -29 -30 -31
leaf_value=-0.00066954969634998719 0.0032752463453012541 -6.6383093434317267e-05 0.0050444954128457406 0.021865411076386718 0.00042580506656897496 0.013074928802291629 0.0069999103215273696 0.0025869753194565012 -0.0018425178263600864 0.0068477219927732483 0.0011692455958338909 0.015636474470080694 0.027404711424875647 0.0087137574460052977 0.0038358049384963171 -0.0010486756012008586 0.0010444643372109887 0.010436702872799236 0.011472287435437108 0.004141133729368386 0.0030029332916321162 0.0069257160692929119 -0.0087998521536147793 0.0011425484866294045 0.0052834288267738444 0.012361835145429618 0.023604734359901257 0.0072100865750198782 0.0037542127894614283 0.0025845079179158586
leaf_weight=7086333 44506 8342 28342 3357 124518 6641 177017 42308 6260 13096 2206 5437 669 49544 28111 16491 12261 47813 10003 63130 2360 33810 263 188310 101730 3464 703 21249 9821 22935
leaf_count=7086333 44506 8342 28342 3357 124518 6641 177017 42308 6260 13096 2206 5437 669 49544 28111 16491 12261 47813 10003 63130 2360 33810 263 188310 101730 3464 703 21249 9821 22935
internal_value=0 0.00494418 0.00373605 0.00282673 -0.000619703 0.00260736 0.00779534 0.0054918 0.00243225 0.0015117 0.0125391 0.00804547 0.00788473 0.00752369 0.00105385 0.00364374 0.0041766 0.00961625 0.00723912 0.00434504 0.0104341 0.00511232 0.0160798 0.00155024 0.00445178 0.0170391 0.0089221 0.00944394 0.000744011 0.0047869
internal_weight=0 908972 638442 420605 7.25206e+06 411315 270530 217837 402314 165725 9290 262188 256751 78589 152629 169498 143186 69731 187020 139248 9001 96940 7084 232816 136926 6821 50247 69062 26312 124665
internal_count=8161030 908972 638442 420605 7252058 411315 270530 217837 402314 165725 9290 262188 256751 78589 152629 169498 143186 69731 187020 139248 9001 96940 7084 232816 136926 6821 50247 69062 26312 124665
is_linear=0
shrinkage=0.1


Tree=9
num_leaves=31
num_cat=0
split_feature=3 7 4 4 47 6 6 8 8 8 3 4 4 55 50 47 47 12 54 17 11 29 54 9 7 12 55 4 47 8
split_gain=2030.33 213.052 152.503 73.0597 71.5086 57.9527 40.9377 39.3312 33.6577 28.5364 35.6527 30.9219 26.3086 31.3996 24.8266 18.8111 18.3526 17.9541 17.3497 16.7684 16.0011 15.4521 15.202 15.003 13.7613 13.4818 12.8636 12.739 13.5332 13.6667
threshold=1.7850000000000004 0.00076500000000000016 0.030050000000000004 0.49950000000000006 0.24050000000000002 0.020050000000000002 0.043050000000000005 1.0000000180025095e-35 9.3350000000000026 8.6150000000000002 0.19850000000000004 0.49950000000000006 0.50050000000000006 13254.000000000002 27.500000000000004 1.0000000180025095e-35 0.16050000000000003 36.150000000000013 21497.500000000004 4.4350000000000014 19.642500000000002 9.990000000000002 2934.5000000000005 164.50000000000003 1.0000000180025095e-35 24.150000000000002 17899.000000000004 1.0000000180025095e-35 1.0000000180025095e-35 10.018333333333336
decision_type=2 2 2 2 2 2 2 2 2 2 2 2 2 2 2 2 2 2 2 2 2 2 2 2 2 2 2 2 2 2
left_child=2 3 16 4 5 14 8 -7 -3 10 -4 -12 13 -5 -2 17 23 -9 -19 26 -6 24 -16 -1 -13 -10 -8 -24 29 -29
right_child=1 6 9 12 20 7 19 15 25 -11 11 21 -14 -15 22 -17 -18 18 -20 -21 -22 -23 27 -25 -26 -27 -28 28 -30 -31
leaf_value=-0.00059877148913500692 0.0013329339476195472 0.0077206564273689356 0.00061205993951513331 0.023548568652449517 0.01371055338457617 0.0015008883778188068 0.0080303189642096737 0.0048912035368558005 0.0039682745047973436 0.0012294938348419043 0.0040474604377676582 0.015287968055916791 0.0077626548602972249 0.0042720866318440723 0.0010087949330297987 0.0010111024389163066 0.005686512540065301 0.008336366485762671 0.00012487457017033702 0.012093389246783767 0.0043804146123625305 -0.0023472326507022524 -0.0032791705299318186 0.0027245486233607569 0.0077454938379912762 0.006218471331211191 0.0047224834392182793 0.005813273136538958 0.0011459243882922675 0.0031751543752604155
leaf_weight=7175106 156023 57490 24386 2868 7830 35006 126881 96738 75321 94446 44737 4475 7028 1198 24142 9725 4658 29382 2820 9371 2402 920 2463 13610 5265 41185 12957 40005 14023 38569
leaf_count=7175106 156023 57490 24386 2868 7830 35006 126881 96738 75321 94446 44737 4475 7028 1198 24142 9725 4658 29382 2820 9371 2402 920 2463 13610 5265 41185 12957 40005 14023 38569
internal_value=0 0.0048064 -0.000517608 0.00344785 0.00325409 0.00306567 0.00678292 0.00449603 0.00574072 0.00240575 0.00379819 0.00520074 0.0114667 0.017869 0.0021631 0.00525215 -0.000588414 0.00557202 0.00761727 0.00799825 0.0115203 0.0100407 0.00324969 -0.00059248 0.0112109 0.00476372 0.00772382 0.0038188 0.0040076 0.00451832
internal_weight=0 793427 7.3676e+06 470222 459128 448896 323205 173671 173996 174229 79783 55397 11094 4066 275225 138665 7.19337e+06 128940 32202 149209 10232 10660 119202 7.18872e+06 9740 116506 139838 95060 92597 78574
internal_count=8161030 793427 7367603 470222 459128 448896 323205 173671 173996 174229 79783 55397 11094 4066 275225 138665 7193374 128940 32202 149209 10232 10660 119202 7188716 9740 116506 139838 95060 92597 78574
is_linear=0
shrinkage=0.1


Tree=10
num_leaves=31
num_cat=0
split_feature=3 7 4 6 3 4 4 17 12 2 53 8 3 4 47 47 4 4 1 8 54 47 9 47 47 54 1 2 29 9
split_gain=1645.27 172.039 125.922 58.9439 36.8057 32.0167 31.7163 31.4507 27.1224 29.4472 24.5231 23.3761 29.057 26.9869 22.856 23.6478 23.5722 31.902 22.4197 20.3543 19.3921 19.2794 17.0451 15.7573 15.5392 13.586 16.7306 13.492 13.0275 12.9698
threshold=1.8025000000000002 0.00077500000000000008 0.031083333333333303 0.021050000000000003 3.9040000000000004 0.0056500000000000014 0.47050000000000003 4.4050000000000011 37.025000000000006 12.500000000000002 9.5000000000000018 9.0050000000000008 0.19850000000000004 0.47050000000000003 0.30495833333333339 1.0000000180025095e-35 0.49950000000000006 0.50050000000000006 272384.50000000006 9.6650000000000009 18463.000000000004 0.12350000000000001 1.0000000180025095e-35 0.12050000000000001 0.27750000000000008 3251.5000000000005 337221.00000000006 8.5000000000000018 9.990000000000002 185.50000000000003
decision_type=2 2 2 2 2 2 2 2 2 2 2 2 2 2 2 2 2 2 2 2 2 2 2 2 2 2 2 2 2 2
left_child=2 3 23 6 -3 27 10 8 19 18 24 12 -4 -14 15 16 -7 -18 -10 -6 -20 -17 -8 29 25 -2 -27 -5 -15 -1
right_child=1 4 11 5 7 14 22 -9 9 -11 -12 -13 13 28 -16 21 17 -19 20 -21 -22 -23 -24 -25 -26 26 -28 -29 -30 -31
leaf_value=-0.00053859280417949769 9.8568453604085969e-05 0.0044838685834470713 0.00050741564406437442 -0.0012955513173191833 0.007255899194653268 0.0049829640320973936 0.012188202824553629 0.01172943167445163 0.011551936520763053 0.0029742165491387649 0.004183556821832266 0.0010411062212168792 0.0035185335560919025 0.0098776550906532964 0.011670253283410776 -0.0010989700405909608 0.028368681789535027 0.0076967326282143499 0.0089096859892410438 0.0047630551301747447 0.004137374062189737 0.0047298987183393322 -9.9214390681624004e-05 0.0042046206691897696 0.011000481111044425 0.0026053290581534317 0.00055810685314375936 0.012882490323571794 -0.0021129469675096597 0.002953396241777353
leaf_weight=7180346 46974 94663 25264 11193 53364 134191 4791 12408 21162 9678 47285 87316 49527 10693 4873 11697 986 3074 30109 84808 11872 11021 1477 7026 1780 134291 56805 714 990 10652
leaf_count=7180346 46974 94663 25264 11193 53364 134191 4791 12408 21162 9678 47285 87316 49527 10693 4873 11697 986 3074 30109 84808 11872 11021 1477 7026 1780 134291 56805 714 990 10652
internal_value=0 0.00433945 -0.000464576 0.00312636 0.00613641 0.0045634 0.00225578 0.00683665 0.00654892 0.00811067 0.00210217 0.00219528 0.00336068 0.00453835 0.00492302 0.00471876 0.00521009 0.0127171 0.00889794 0.00572583 0.0075601 0.00172874 0.00929278 -0.000528795 0.00169183 0.00162224 0.00199677 -0.000445369 0.00886159 -0.00053342
internal_weight=0 789216 7.37181e+06 471152 318064 177749 293403 223401 210993 72821 287135 173790 86474 61210 165842 160969 138251 4060 63143 138172 41981 22718 6268 7.19802e+06 239850 238070 191096 11907 11683 7.191e+06
internal_count=8161030 789216 7371814 471152 318064 177749 293403 223401 210993 72821 287135 173790 86474 61210 165842 160969 138251 4060 63143 138172 41981 22718 6268 7198024 239850 238070 191096 11907 11683 7190998
is_linear=0
shrinkage=0.1


Tree=11
num_leaves=31
num_cat=0
split_feature=3 6 6 47 6 6 9 4 50 10 47 47 50 47 1 54 9 2 29 4 47 55 54 77 9 11 15 6 7 6
split_gain=1337.11 194.294 71.7343 43.8153 40.3404 39.3131 35.6155 32.2431 31.1913 27.8821 22.6628 19.8546 19.3434 16.2514 16.1316 24.6191 14.7271 14.1739 13.8531 13.5564 12.6367 12.3466 12.308 11.4802 11.3954 22.0514 17.7018 11.2314 16.8993 11.8145
threshold=0.76050000000000006 0.022450000000000001 1.0000000180025095e-35 0.33650000000000008 0.042050000000000011 0.0064450000000000011 126.50000000000001 0.030050000000000004 27.500000000000004 1.4950000000000003 0.0038500000000000006 0.30495833333333339 24.500000000000004 0.20050000000000004 266828.50000000006 16104.500000000002 116.50000000000001 12.500000000000002 5.995000000000001 0.11550000000000002 0.18050000000000002 12050.500000000002 2634.5000000000005 1.0000000180025095e-35 114.50000000000001 1.0000000180025095e-35 84.937500000000014 0.098550000000000013 2.5000000000000005e-05 0.10050000000000002
decision_type=2 2 2 2 2 2 2 2 2 2 2 2 2 2 2 2 2 2 2 2 2 2 2 2 2 2 2 2 2 2
left_child=6 2 9 4 12 -4 13 -6 -7 18 14 16 -3 23 22 17 -10 -16 -2 -11 -12 -8 -9 -1 -21 -26 -27 -24 29 -29
right_child=1 3 5 -5 7 8 21 10 11 19 20 -13 -14 -15 15 -17 -18 -19 -20 24 -22 -23 27 -25 25 26 -28 28 -30 -31
leaf_value=-0.00050503029488027076 0.0035727347659472784 0.0029875203559100172 0.00020109053504140155 0.01162885886209967 0.0022563693588542578 0.0013907675099110737 0.0062667222486602258 0.001139673790333259 0.0023639091557215285 0.0049198552499522272 -0.0010173138404147703 0.01409019526136372 0.0049402799447880305 0.005984009233782393 0.0072272568145208757 0.0032653617166386209 0.0044847071405294623 0.0036729047237765524 -0.0040161563370505983 0.010494838429225294 0.0053584218620359595 0.0016361161928446601 0.0072770327764616243 0.00014917179216108697 0.010078715314022893 -0.0065945622349781949 0.0080395203446937038 0.025225336214371737 0.0089153228480901708 0.01108302723165179
leaf_weight=6908700 40327 106418 125527 10011 22239 165856 9011 2772 74061 19883 6284 1728 96931 3892 69912 28808 58691 13364 2558 12380 6152 15950 56778 279077 4750 1976 1421 1172 13210 1191
leaf_count=6908700 40327 106418 125527 10011 22239 165856 9011 2772 74061 19883 6284 1728 96931 3892 69912 28808 58691 13364 2558 12380 6152 15950 56778 279077 4750 1976 1421 1172 13210 1191
internal_value=0 0.00353835 0.0022122 0.00508971 0.00493576 0.00168726 -0.000463044 0.00586819 0.00230842 0.00489608 0.00627053 0.00344016 0.00391835 -0.000476132 0.00654514 0.00578517 0.00330154 0.00665686 0.00312007 0.00678087 0.00213672 0.00330778 0.00767901 -0.00047963 0.00858349 0.00567905 -0.000472975 0.00792955 0.0103086 0.0180973
internal_weight=0 944400 509158 435242 425231 425863 7.21663e+06 221882 300336 83295 199643 134480 203349 7.19167e+06 187207 112084 132752 83276 42885 40410 12436 24961 75123 7.18778e+06 20527 8147 3397 72351 15573 2363
internal_count=8161030 944400 509158 435242 425231 425863 7216630 221882 300336 83295 199643 134480 203349 7191669 187207 112084 132752 83276 42885 40410 12436 24961 75123 7187777 20527 8147 3397 72351 15573 2363
is_linear=0
shrinkage=0.1


Tree=12
num_leaves=31
num_cat=0
split_feature=3 7 4 12 46 7 50 8 54 55 10 6 0 4 3 48 4 12 2 10 1 47 47 1 8 1 47 8 4 6
split_gain=1091.61 116.357 96.4639 47.7897 30.8297 27.659 26.9649 26.3834 20.0484 19.367 18.8059 18.5541 18.4732 17.2491 28.3689 16.9838 15.8432 13.8071 16.6086 13.1597 12.7794 11.507 11.4907 11.4891 11.4768 11.36 10.6031 10.2663 10.1363 10.0599
threshold=2.0950000000000002 0.00081500000000000008 0.040050000000000009 35.050000000000004 0.17850000000000002 0.00020500000000000002 25.500000000000004 9.9550000000000018 21723.500000000004 11099.000000000002 1.385 0.047050000000000008 301512.50000000006 0.21350000000000002 1.0000000180025095e-35 3184.5000000000005 0.028400000000000005 25.425000000000001 12.500000000000002 2.5050000000000003 409062.50000000006 0.098750000000000018 0.27050000000000007 281865.00000000006 9.4350000000000005 465453.50000000006 0.25450000000000006 1.0000000180025095e-35 0.13550000000000004 0.098550000000000013
decision_type=2 2 2 2 2 2 2 2 2 2 2 2 2 2 2 2 2 2 2 2 2 2 2 2 2 2 2 2 2 2
left_child=2 3 16 4 5 10 11 27 9 12 21 -3 -5 22 -15 -11 -1 24 23 29 -17 -2 -4 -19 -8 26 -18 -7 -12 -16
right_child=1 6 13 8 -6 7 17 -9 -10 15 28 -13 -14 14 19 20 25 18 -20 -21 -22 -23 -24 -25 -26 -27 -28 -29 -30 -31
leaf_value=-0.00044882750991337656 -0.00027013041822626318 0.0033338262259231064 0.0012182158895960042 -0.0007401021412196193 0.0078912578113894318 0.0008606603186846921 0.0066128134135074491 0.0019023228283032052 -0.001452385563235771 0.0011801544461687334 0.0023171824000466829 0.005570015063464457 0.0071648973435359965 -7.3203038268098634e-05 0.0029835226026581688 0.0061036827437342739 0.00094427520238899029 0.010152345469277325 0.0032926716700181873 0.0078466464413503596 0.0012967789148358223 0.0030479679720280951 0.0086552096572581113 0.0069557641171241399 0.0041955125443442903 -0.00050804646932044151 0.01273697010574075 0.0045669025624961194 0.0077646736150111199 0.0098227699320802241
leaf_weight=7032878 84092 85640 117341 3201 9085 8414 38919 169014 5124 17929 15234 65469 38661 14826 19784 24717 128364 18032 8216 11917 7125 11935 2115 29868 39651 79006 767 66890 4403 2413
leaf_count=7032878 84092 85640 117341 3201 9085 8414 38919 169014 5124 17929 15234 65469 38661 14826 19784 24717 128364 18032 8216 11917 7125 11935 2115 29868 39651 79006 767 66890 4403 2413
internal_value=0 0.00363123 -0.000368356 0.00265666 0.00213805 0.00199285 0.00521971 0.00259596 0.00463485 0.00497524 0.000718888 0.00430267 0.00656044 0.0019977 0.0035789 0.00364195 -0.000423381 0.00624857 0.00744662 0.00516611 0.00502808 0.000142269 0.00134989 0.00815912 0.0053929 0.00043645 0.00101432 0.00415279 0.00353862 0.00372701
internal_weight=0 751619 7.40941e+06 465824 369067 359982 285795 244318 96757 91633 115664 151109 41862 168396 48940 49771 7.24102e+06 134686 56116 34114 31842 96027 119456 47900 78570 208137 129131 75304 19637 22197
internal_count=8161030 751619 7409411 465824 369067 359982 285795 244318 96757 91633 115664 151109 41862 168396 48940 49771 7241015 134686 56116 34114 31842 96027 119456 47900 78570 208137 129131 75304 19637 22197
is_linear=0
shrinkage=0.1


Tree=13
num_leaves=31
num_cat=0
split_feature=3 7 4 10 47 17 8 4 47 54 4 8 6 3 50 4 47 4 1 1 54 3 47 23 12 46 8 54 12 11
split_gain=885.337 93.8246 83.5442 37.8666 30.3351 30.3305 26.5961 21.1835 22.9667 19.6271 19.4809 19.1528 18.9004 17.456 17.1234 16.7642 14.1242 13.5362 13.2774 28.6527 15.48 12.923 11.8431 11.6922 11.1094 10.5307 10.3312 10.021 12.2649 9.95364
threshold=2.2150000000000003 0.00069500000000000009 0.030050000000000004 1.4450000000000003 0.19019999999999998 4.3550000000000013 9.8550000000000022 0.028400000000000005 1.0000000180025095e-35 2538.0000000000005 0.42250000000000004 8.6150000000000002 0.040050000000000009 0.19850000000000004 25.500000000000004 0.49950000000000006 0.077050000000000021 0.50050000000000006 143493.00000000003 278287.00000000006 16041.500000000002 0.99950000000000017 0.10250000000000001 0.49500000000000005 39.95000000000001 0.27950000000000008 1.0000000180025095e-35 21723.500000000004 50.050000000000004 20.050000000000004
decision_type=2 2 2 2 2 2 2 2 2 2 2 2 2 2 2 2 2 2 2 2 2 2 2 2 2 2 2 2 2 2
left_child=2 3 22 4 7 6 18 -2 9 -9 -5 13 -8 -4 -11 25 -10 21 -3 27 -21 -17 -1 -23 -16 26 -15 28 -20 -6
right_child=1 5 11 10 29 -7 12 8 16 14 -12 -13 -14 15 24 17 -18 -19 19 20 -22 23 -24 -25 -26 -27 -28 -29 -30 -31
leaf_value=-0.0003896204426658948 -0.0015762543705571904 0.0032014632016720552 0.0004174799135383576 0.0036594644717607297 0.008483311436168756 0.0086549092163753453 0.0025475265907472159 -8.9039034184375043e-05 -0.0017201928677410242 0.0016798730352308789 0.0091213406142558792 0.00079510585180444886 0.004670445280773928 0.00087967390448574474 0.0030542308418243097 -0.0049714572527810533 0.0016958329268709057 0.0051952042184047025 0.00691344561173385 0.0055086653844363129 0.0024044062922906752 0.019187505064392762 0.0032293577228846787 -0.0019033448950211012 0.0059272147965811007 0.010302682162261143 0.003703573153700439 -0.0011362493336995944 0.010671612238794509 0.0010212104403186876
leaf_weight=7205329 20013 24880 24386 81896 8638 17047 96050 32010 26802 102479 7096 119862 74440 22196 79969 332 22071 10212 39715 45890 24716 1864 9054 306 16183 1801 31119 1306 11114 2254
leaf_count=7205329 20013 24880 24386 81896 8638 17047 96050 32010 26802 102479 7096 119862 74440 22196 79969 332 22071 10212 39715 45890 24716 1864 9054 306 16183 1801 31119 1306 11114 2254
internal_value=0 0.00331174 -0.000327572 0.00227647 0.00175513 0.00454549 0.00432528 0.00156662 0.00179164 0.00220891 0.00409498 0.00162865 0.00347444 0.00271209 0.00257923 0.00353705 -0.000177519 0.00681029 0.00530792 0.0057349 0.004422 0.0134023 -0.000385079 0.0162134 0.00353777 0.00278198 0.00252793 0.00751295 0.00773519 0.0069391
internal_weight=0 734569 7.42646e+06 399411 310419 335158 318111 299527 279514 230641 88992 212078 170490 92216 198631 67830 48873 12714 147621 122741 70606 2502 7.21438e+06 2170 96152 55116 53315 52135 50829 10892
internal_count=8161030 734569 7426461 399411 310419 335158 318111 299527 279514 230641 88992 212078 170490 92216 198631 67830 48873 12714 147621 122741 70606 2502 7214383 2170 96152 55116 53315 52135 50829 10892
is_linear=0
shrinkage=0.1


Tree=14
num_leaves=31
num_cat=0
split_feature=3 7 6 12 4 46 50 17 54 55 10 54 4 8 46 9 8 10 48 7 47 0 55 55 6 55 55 47 50 6
split_gain=718.987 77.1857 75.9488 35.5628 22.2797 21.9588 19.1855 17.7575 17.1533 17.2419 16.0884 15.3701 16.1817 15.4475 14.3751 15.7631 13.633 13.5233 13.2953 12.7307 11.5802 11.1649 11.0606 10.6322 10.6145 9.37751 14.9384 8.58332 8.52529 8.25716
threshold=2.4350000000000005 0.00089500000000000007 0.0050100000000000014 37.850000000000001 0.29950000000000004 0.25050000000000006 25.500000000000004 4.2150000000000007 21723.500000000004 11099.000000000002 2.0150000000000001 2934.5000000000005 0.030050000000000004 2.3850000000000002 0.20050000000000004 134.50000000000003 9.8750000000000018 1.8050000000000004 3184.5000000000005 1.0000000180025095e-35 0.085150000000000017 283862.50000000006 12206.500000000002 15531.500000000002 0.098550000000000013 4081.0000000000005 11099.000000000002 0.19019999999999998 19.500000000000004 0.10050000000000002
decision_type=2 2 2 2 2 2 2 2 2 2 2 2 2 2 2 2 2 2 2 2 2 2 2 2 2 2 2 2 2 2
left_child=2 3 10 5 14 7 17 11 9 21 27 -2 13 20 15 -4 -15 -3 -11 24 -13 -5 -17 -20 -6 -8 -27 -1 -23 -26
right_child=1 6 4 8 19 -7 25 -9 -10 18 -12 12 -14 16 -16 22 -18 -19 23 -21 -22 28 -24 -25 29 26 -28 -29 -30 -31
leaf_value=-0.0003563549160371659 -1.816407276711787e-05 0.0029537099266080014 0.0005584062751105292 -0.00090256956987414807 0.0056282127201255786 0.0087809263161334802 0.0027905325373889507 0.0063934387892557107 -0.001542743776451514 0.00090971913363662067 0.0021982055963511767 -0.0011965026019978911 0.0027387520639839437 0.0034432279039912222 0.0079097847019962662 0.0045409823910723462 0.0011768331319810493 0.0050913608827492934 0.0057877935165225117 0.0033024720061560322 0.0034202394068389369 0.0048122778250036594 0.0014419429954937494 0.0017594509109763491 0.02193354928452558 0.0070874140783174049 0.0046569131749044819 0.0043975496610321558 0.0079036161262517595 0.0073232960293456717
leaf_weight=7202961 47800 90668 146390 2215 2928 4504 12209 8072 5143 17224 24787 33547 133339 36354 3128 18742 98328 43935 19211 19409 6483 17219 29873 9943 919 45015 57704 3800 18512 668
leaf_count=7202961 47800 90668 146390 2215 2928 4504 12209 8072 5143 17224 24787 33547 133339 36354 3128 18742 98328 43935 19211 19409 6483 17219 29873 9943 919 45015 57704 3800 18512 668
internal_value=0 0.00304671 -0.000289164 0.00227561 0.00153247 0.00184133 0.00446168 0.00175545 0.00406399 0.00440595 -0.000345101 0.00165024 0.00190912 0.00127596 0.0011844 0.00107652 0.00178859 0.00365145 0.00311252 0.00441506 -0.000448805 0.0059868 0.00263668 0.00441392 0.00919785 0.00541062 0.00572204 -0.000353848 0.00641388 0.0157838
internal_weight=0 707425 7.4536e+06 457894 222057 368427 249531 363923 89467 84324 7.23155e+06 355851 308051 174712 198133 195005 134682 134603 46378 23924 40030 37946 48615 29154 4515 114928 102719 7.20676e+06 35731 1587
internal_count=8161030 707425 7453605 457894 222057 368427 249531 363923 89467 84324 7231548 355851 308051 174712 198133 195005 134682 134603 46378 23924 40030 37946 48615 29154 4515 114928 102719 7206761 35731 1587
is_linear=0
shrinkage=0.1


Tree=15
num_leaves=31
num_cat=0
split_feature=3 7 4 12 46 2 12 10 17 54 55 9 50 1 54 3 4 48 46 48 7 8 8 46 0 1 4 55 3 9
split_gain=582.379 62.5389 62.0058 28.659 18.1493 17.5406 18.2181 14.6937 14.4488 13.7838 14.2096 13.1627 12.9114 12.6053 14.1041 12.5911 13.3741 11.9711 10.5557 10.5548 10.2853 11.9952 10.0138 9.99829 9.92084 9.47062 9.28229 9.10058 9.03069 8.99188
threshold=2.4350000000000005 0.00088500000000000004 0.04105000000000001 37.850000000000001 0.28100000000000008 4.5000000000000009 24.925000000000001 2.3050000000000002 4.6450000000000005 21723.500000000004 10406.500000000002 160.50000000000003 27.500000000000004 266828.50000000006 18463.000000000004 1.0000000180025095e-35 0.49950000000000006 21008.500000000004 0.28100000000000008 3184.5000000000005 0.00030500000000000004 9.3050000000000015 9.8550000000000022 0.08320000000000001 326761.00000000006 409062.50000000006 0.020250000000000004 5350.5000000000009 5.3950000000000005 1.0000000180025095e-35
decision_type=2 2 2 2 2 2 2 2 2 2 2 2 2 2 2 2 2 2 2 2 2 2 2 2 2 2 2 2 2 2
left_child=2 3 11 4 8 6 22 18 12 10 24 23 -2 27 28 -9 -17 -7 -4 -12 -14 -22 -3 -1 -5 -21 -26 -8 -15 -28
right_child=1 5 7 9 -6 17 13 15 -10 -11 19 -13 20 14 -16 16 -18 -19 -20 25 21 -23 -24 -25 26 -27 29 -29 -30 -31
leaf_value=-0.00031822587972193646 0.00095719634158313548 0.0046626826365053931 0.00097608420533262666 -0.00056078305354944691 0.0088196016622155201 0.0018435077114858584 0.0020424101192109958 -0.00044043616042609363 0.0064139575332797117 -0.001384636488520091 0.0012021025106330762 0.0019546178806751197 0.0011635654571168308 0.0039429876259786277 0.0019096656840227218 0.0028560988605371537 0.0074391133355575989 0.0072706742717903883 0.0089972169546409676 0.0049598794239579594 0.0044840715520306634 0.002076011858607711 0.0027454936369009277 0.0039270397380865261 -0.0082035645434574162 0.00057961413435473068 0.0079688414657172954 0.0078112328982217968 0.0067182283726172944 0.0044116222949032785
leaf_weight=7231933 196545 47542 148373 2387 3499 45497 3059 7651 6087 5118 20806 25644 62463 20967 14262 24145 8648 4463 1659 25308 29680 68261 63810 5552 444 6132 15778 25787 26601 12929
leaf_count=7231933 196545 47542 148373 2387 3499 45497 3059 7651 6087 5118 20806 25644 62463 20967 14262 24145 8648 4463 1659 25308 29680 68261 63810 5552 444 6132 15778 25787 26601 12929
internal_value=0 0.00274204 -0.000260248 0.00204266 0.00165199 0.00400607 0.00442097 0.0015208 0.00158291 0.00365338 0.00396113 -0.000306956 0.00150052 0.00547329 0.00466796 0.00321245 0.00406471 0.00232832 0.00106478 0.00294931 0.00216627 0.00280575 0.00356404 -0.000314969 0.0056373 0.00410556 0.00614483 0.00719947 0.00549496 0.00636675
internal_weight=0 707425 7.4536e+06 455437 366535 251988 202028 190476 363036 88902 83784 7.26313e+06 356949 90676 61830 40444 32793 49960 150032 52246 160404 97941 111352 7.23748e+06 31538 31440 29151 28846 47568 28707
internal_count=8161030 707425 7453605 455437 366535 251988 202028 190476 363036 88902 83784 7263129 356949 90676 61830 40444 32793 49960 150032 52246 160404 97941 111352 7237485 31538 31440 29151 28846 47568 28707
is_linear=0
shrinkage=0.1


Tree=16
num_leaves=31
num_cat=0
split_feature=6 4 0 47 6 55 11 48 10 50 46 48 11 48 12 8 8 1 2 48 55 3 4 4 6 47 48 5 0 55
split_gain=475.241 76.1431 43.4845 38.9777 31.9352 22.219 19.3472 20.1597 18.5747 17.4944 14.3893 12.52 12.3773 11.8233 12.6021 11.1224 14.1985 10.5537 9.77542 9.68664 9.61569 9.56283 9.00065 16.482 8.99449 8.80674 8.76202 8.74549 10.3731 8.24757
threshold=0.015025000000000002 0.028400000000000005 498474.50000000006 0.39050000000000007 0.04055000000000001 12515.000000000002 1.0000000180025095e-35 5539.0000000000009 1.5025000000000002 24.500000000000004 0.10450000000000001 3478.0000000000005 41.95000000000001 10323.500000000002 11.550000000000002 1.0000000180025095e-35 9.1550000000000029 553077.00000000012 22.500000000000004 3184.5000000000005 15148.500000000002 3.8250000000000006 0.49950000000000006 0.50050000000000006 1.0000000180025095e-35 0.81700000000000006 4853.5000000000009 4.1750000000000007 480948.50000000006 10633.500000000002
decision_type=2 2 2 2 2 2 2 2 2 2 2 2 2 2 2 2 2 2 2 2 2 2 2 2 2 2 2 2 2 2
left_child=1 -1 6 4 9 18 7 11 20 19 -8 -3 25 14 -10 -11 21 27 24 29 -6 -17 -15 -24 -4 -5 -21 -16 -29 -2
right_child=3 2 5 12 8 -7 10 -9 13 15 -12 -13 -14 22 17 16 -18 -19 -20 26 -22 -23 23 -25 -26 -27 -28 28 -30 -31
leaf_value=-0.00029972775668611406 0.0016595558997558148 0.0011869036187400189 0.005396857206508488 0.012170515492336878 0.0032602477813342742 0.00018152749927879082 -0.00012007038825146298 0.00080691950413809468 0.00090636761362847219 0.00061910558498026464 0.0047309335561688988 0.0049265120517426805 0.00083386799896253646 0.0049338850550096555 0.0023402150958634349 0.0031255632968598653 0.0023495774741390456 -0.0089854507122383315 -0.00546104771361316 0.0038170820280137084 0.0013750859869935345 0.0059457882395376358 0.020793896768914161 0.0069767764810699092 0.0029995305953277743 -0.0037529314777113459 0.0013512662078628208 0.0076330110760931894 0.0032307069486567281 -0.001871838538537261
leaf_weight=7038659 11214 15063 28816 6480 111092 20946 258269 149933 13901 21214 6263 22070 1348 40110 10435 25283 92381 571 1089 16256 35769 22925 944 10102 34254 367 126944 13215 8996 16121
leaf_count=7038659 11214 15063 28816 6480 111092 20946 258269 149933 13901 21214 6263 22070 1348 40110 10435 25283 92381 571 1089 16256 35769 22925 944 10102 34254 367 126944 13215 8996 16121
internal_value=0 -0.000212182 0.000935949 0.00274448 0.0026473 0.00300942 0.000545197 0.00132355 0.00351318 0.00200862 -5.21911e-06 0.00340954 0.00959264 0.0045773 0.00343441 0.00275348 0.00307554 0.00449237 0.00393265 0.0013019 0.0028011 0.0044667 0.00562997 0.0081576 0.00409484 0.011317 0.00163118 0.00472811 0.00584997 -0.000423108
internal_weight=0 7.57536e+06 536703 585668 577473 85105 451598 187066 245135 332338 264532 37133 8195 98274 47118 161803 140589 33217 64159 170535 146861 48208 51156 11046 63070 6847 143200 32646 22211 27335
internal_count=8161030 7575362 536703 585668 577473 85105 451598 187066 245135 332338 264532 37133 8195 98274 47118 161803 140589 33217 64159 170535 146861 48208 51156 11046 63070 6847 143200 32646 22211 27335
is_linear=0
shrinkage=0.1


Tree=17
num_leaves=31
num_cat=0
split_feature=3 4 3 1 54 1 47 4 50 50 7 4 10 54 47 1 53 12 54 3 23 0 48 29 3 17 17 48 1 46
split_gain=389.861 46.7016 43.1853 30.4452 28.9438 28.8579 28.2457 21.7715 21.1379 20.6414 17.1266 16.9981 16.2357 14.9691 13.5019 12.701 12.5418 12.5089 12.0898 11.3967 11.8625 11.3474 11.9132 9.24989 9.2352 9.14578 8.77257 8.35653 7.96847 7.68131
threshold=2.5950000000000002 0.030050000000000004 0.19850000000000004 465453.50000000006 2634.5000000000005 399225.00000000006 0.28550000000000003 0.49950000000000006 24.500000000000004 22.500000000000004 0.00020500000000000002 0.50050000000000006 1.6050000000000002 15881.500000000002 0.31050000000000005 550517.50000000012 9.5000000000000018 32.650000000000013 21723.500000000004 0.99950000000000017 1.0000000180025095e-35 308117.00000000006 16440.000000000004 8.9750000000000032 4.8750000000000009 3.8650000000000007 4.7550000000000008 3184.5000000000005 259853.00000000003 0.095050000000000009
decision_type=2 2 2 2 2 2 2 2 2 2 2 2 2 2 2 2 2 2 2 2 2 2 2 2 2 2 2 2 2 2
left_child=2 6 -1 7 -3 9 10 8 -4 12 29 19 27 15 21 -7 25 26 24 -9 23 -10 -23 -21 -19 -12 -11 28 -6 -2
right_child=1 4 3 -5 5 13 -8 11 14 17 16 -13 -14 -15 -16 -17 -18 18 -20 20 -22 22 -24 -25 -26 -27 -28 -29 -30 -31
leaf_value=-0.00026596652864872117 -0.00046080379209730607 -0.00050334501928485625 6.3629906008900943e-05 -0.00058137557312398986 0.0029428620158829365 0.002838746071473395 0.01099286058290414 -0.0050353642556048121 -2.6225546093091148e-05 0.0034041630974422318 0.001077471097259027 0.0033164377515220197 0.0040224746350695307 -0.0012158832052336578 0.0095434426462516226 -0.00096324638526978251 0.0034147189659070273 0.0037051274352940819 -0.00054785266451809239 0.017752862734623814 -0.0022674699373727227 0.0018250809110356703 0.0047807949741373208 -0.0094839077640437724 0.0064202572353464953 0.0065140635671248866 0.0080617640995275883 0.0024787866376957939 -0.0006505173785223146 0.0035535252453248838
leaf_weight=7086333 70740 23774 106269 110517 9042 45125 2895 374 27933 106200 133069 15623 58850 18006 2280 10911 31614 17506 3319 2251 405 104237 15689 132 44051 3168 4204 81965 19437 5111
leaf_count=7086333 70740 23774 106269 110517 9042 45125 2895 374 27933 106200 133069 15623 58850 18006 2280 10911 31614 17506 3319 2251 405 104237 15689 132 44051 3168 4204 81965 19437 5111
internal_value=0 0.00227613 -0.000209879 0.000820576 0.00289081 0.00308357 0.0011734 0.0013836 0.00114285 0.00346845 0.00105675 0.00466974 0.00268091 0.00129245 0.00190672 0.00209844 0.00162029 0.0042291 0.00533113 0.0113562 0.0135551 0.00178896 0.00221175 0.0162442 0.00564811 0.00120389 0.00358152 0.00196606 0.00049037 -0.00019031
internal_weight=0 688987 7.47204e+06 385710 442390 418616 246597 275193 256408 344574 243702 18785 169294 74042 150139 56036 167851 175280 64876 3162 2788 147859 119926 2383 61557 136237 110404 110444 28479 75851
internal_count=8161030 688987 7472043 385710 442390 418616 246597 275193 256408 344574 243702 18785 169294 74042 150139 56036 167851 175280 64876 3162 2788 147859 119926 2383 61557 136237 110404 110444 28479 75851
is_linear=0
shrinkage=0.1


Tree=18
num_leaves=31
num_cat=0
split_feature=6 4 54 46 55 12 48 54 54 9 0 1 3 1 55 50 48 1 54 46 11 48 55 7 10 47 8 1 12 55
split_gain=318.607 54.1393 32.0732 30.1263 22.4071 21.184 21.668 19.0865 17.1731 16.8663 17.4132 15.1342 13.0525 11.5332 12.4583 11.3878 10.7398 12.6275 12.7669 10.2018 11.0861 16.4287 10.1293 9.71083 9.13208 9.11645 8.15976 8.03593 9.02817 7.73943
threshold=0.017050000000000006 0.028400000000000005 14546.500000000002 0.37600000000000006 12515.000000000002 24.925000000000001 20065.500000000004 21218.500000000004 17578.000000000004 43.850000000000001 431443.00000000006 216674.00000000003 3.7050000000000005 94770.000000000015 18207.000000000004 22.500000000000004 15359.500000000002 298830.00000000006 16041.500000000002 0.12050000000000001 1.0000000180025095e-35 4853.5000000000009 8254.5000000000018 0.00075500000000000014 1.4016666666666666 0.13661428571428572 9.5450000000000017 381200.00000000006 44.050000000000004 12515.000000000002
decision_type=2 2 2 2 2 2 2 2 2 2 2 2 2 2 2 2 2 2 2 2 2 2 2 2 2 2 2 2 2 2
left_child=1 -1 19 5 23 6 9 12 -8 24 13 -10 -7 -11 26 -14 17 -12 -19 20 21 22 -3 -4 25 -2 -15 28 -17 -9
right_child=3 2 4 -5 -6 7 8 29 11 10 16 -13 15 14 -16 27 -18 18 -20 -21 -22 -23 -24 -25 -26 -27 -28 -29 -30 -31
leaf_value=-0.00024361863731857695 -0.00071703419243863758 -0.0029696308393035837 0.0022437979350934641 0.010989359663646227 0.00025067262422253441 0.0021027288817007544 0.0024769304730928188 0.0010454179757935509 0.007200042438001081 -0.00072442503189004779 0.0027315766344282715 -0.0015095092634204814 0.0030545808034740021 0.0053283863813328508 0.00080939933549322232 0.003968887898045107 -0.0025520202021454231 0.0019162983207005578 -0.0012932375105451088 0.0045910806904867476 -0.00016522917153993845 0.00054510251365446607 0.0046685677345217579 0.0044358921296771339 0.0017489463355426134 0.0026899717365724794 0.0030822160240089906 0.0026961063977407776 0.0068042398845322817 -0.0041922507344417494
leaf_weight=7039542 58571 1957 80906 3990 51190 50253 48956 11105 15679 7844 37956 2286 59297 24490 16639 19278 7634 24732 24843 5477 252104 140812 15388 26937 33992 9070 47623 11796 26901 3782
leaf_count=7039542 58571 1957 80906 3990 51190 50253 48956 11105 15679 7844 37956 2286 59297 24490 16639 19278 7634 24732 24843 5477 252104 140812 15388 26937 33992 9070 47623 11796 26901 3782
internal_value=0 -0.000167425 0.000765755 0.00233179 0.00197354 0.00226814 0.00182361 0.00314621 0.00344734 0.00145325 0.00200523 0.00609177 0.00345114 0.00295107 0.00327592 0.00402896 0.00104517 0.0013589 0.000307937 0.000303739 0.000246503 0.000902808 0.00380677 0.00279134 0.000411784 -0.000260188 0.00384503 0.00502555 0.00562059 -0.000285197
internal_weight=0 7.61431e+06 574771 546717 159033 542727 360315 182412 66921 293394 191761 17965 167525 96596 88752 117272 95165 87531 49575 415738 410261 158157 17345 107843 101633 67641 72113 57975 46179 14887
internal_count=8161030 7614313 574771 546717 159033 542727 360315 182412 66921 293394 191761 17965 167525 96596 88752 117272 95165 87531 49575 415738 410261 158157 17345 107843 101633 67641 72113 57975 46179 14887
is_linear=0
shrinkage=0.1


Tree=19
num_leaves=31
num_cat=0
split_feature=3 10 10 47 47 50 47 12 47 9 48 4 8 8 11 17 11 4 3 6 2 1 7 46 50 1 48 55 10 0
split_gain=260.76 37.3492 32.8072 29.6525 23.1385 22.1734 18.8534 17.8823 16.6207 14.0077 13.7741 13.6352 12.5719 22.5328 9.73685 9.36768 8.85343 8.75646 11.3878 8.17466 8.11142 9.44251 7.48536 7.11564 7.09257 7.07092 6.93279 8.09773 6.69198 6.60242
threshold=2.8733333333333335 1.5025000000000002 1.7050000000000003 0.28550000000000003 1.0000000180025095e-35 23.500000000000004 0.18050000000000002 42.750000000000007 0.11250000000000002 122.50000000000001 14420.000000000002 0.13250000000000003 1.0000000180025095e-35 9.3750000000000018 21.350000000000005 4.1850000000000014 15.925000000000002 0.17550000000000002 0.19850000000000004 0.019337500000000004 5.5000000000000009 266828.50000000006 1.0000000180025095e-35 0.047050000000000008 24.500000000000004 546656.00000000012 3184.5000000000005 17301.500000000004 2.101666666666667 611554.50000000012
decision_type=2 2 2 2 2 2 2 2 2 2 2 2 2 2 2 2 2 2 2 2 2 2 2 2 2 2 2 2 2 2
left_child=2 3 6 4 5 19 9 12 23 -1 24 15 -7 -14 -5 -3 -8 -4 -19 -2 21 29 -20 -6 -11 28 -21 -28 -13 -9
right_child=1 11 17 14 8 7 16 20 -10 10 -12 25 13 -15 -16 -17 -18 18 22 26 -22 -23 -24 -25 -26 -27 27 -29 -30 -31
leaf_value=-0.00021223177920790291 0.00011948476718369297 0.0021626159231976074 0.00094805991355633779 0.0083414789933530676 -0.0028102625819608103 -0.00053649264384211998 0.0058372006475249684 0.0085154343407914321 0.0017113377862428584 -0.00096987515594936392 0.0034648306398590888 0.0031480005099165142 0.0037385069245813741 0.0012913284641468221 -0.00095338430666429502 0.0057669845687005816 -0.0007056584440947323 -0.00058240720564296355 0.0066266072868702746 -0.00012532666388598323 0.0013960027670181854 0.003736099128407245 0.0028595891361081829 -6.8016889164930806e-05 0.0012099453929084799 -0.0013071241106769995 0.0022570657897014071 -0.00062858138283818478 0.0051823963261641987 0.0013530871844136044
leaf_weight=7310324 87197 95730 67573 8031 23345 18967 7595 8922 22476 23872 18938 25999 59243 103114 1311 7798 2842 7387 7137 22439 7581 18973 20218 15912 39834 2231 70491 11281 42765 1504
leaf_count=7310324 87197 95730 67573 8031 23345 18967 7595 8922 22476 23872 18938 25999 59243 103114 1311 7798 2842 7387 7137 22439 7581 18973 20218 15912 39834 2231 70491 11281 42765 1504
internal_value=0 0.00191302 -0.000167022 0.00145818 0.00134763 0.00161956 -0.0001916 0.00230842 -0.000457192 -0.000197596 0.00109701 0.00316607 0.00189969 0.00218429 0.00703709 0.00243411 0.00405558 0.0016114 0.00290159 0.000833917 0.00431254 0.00506462 0.00384242 -0.00169875 0.00039312 0.00423345 0.00143171 0.00185897 0.00441321 0.00748223
internal_weight=0 655310 7.50572e+06 480787 471445 409712 7.4034e+06 218304 61733 7.39297e+06 82644 174523 181324 162357 9342 103528 10437 102315 34742 191408 36980 29399 27355 39257 63706 70995 104211 81772 68764 10426
internal_count=8161030 655310 7505720 480787 471445 409712 7403405 218304 61733 7392968 82644 174523 181324 162357 9342 103528 10437 102315 34742 191408 36980 29399 27355 39257 63706 70995 104211 81772 68764 10426
is_linear=0
shrinkage=0.1


Tree=20
num_leaves=31
num_cat=0
split_feature=3 10 10 47 47 50 12 47 47 8 8 4 9 12 8 4 3 7 11 2 1 46 1 23 11 6 46 17 1 54
split_gain=211.543 30.2191 27.5226 24.6223 18.5757 18.3373 15.7479 15.5139 14.9075 11.3059 18.71 10.9988 10.9774 12.0102 13.1128 7.92121 8.86502 7.78372 7.781 7.73618 9.00795 7.17729 6.92279 6.82645 6.81922 6.7928 6.50873 6.3235 6.2563 6.81402
threshold=2.9550000000000005 1.6150000000000004 1.5025000000000002 0.30495833333333339 1.0000000180025095e-35 22.500000000000004 39.95000000000001 0.14050000000000004 0.21050000000000002 10.110000000000001 1.0000000180025095e-35 0.11650000000000002 122.50000000000001 1.0000000180025095e-35 8.6950000000000021 0.18250000000000002 1.0000000180025095e-35 1.0000000180025095e-35 21.350000000000005 11.500000000000002 266828.50000000006 0.052100000000000007 266828.50000000006 3.3650000000000007 15.925000000000002 0.04105000000000001 0.16050000000000003 4.4050000000000011 137648.00000000003 21723.500000000004
decision_type=2 2 2 2 2 2 2 2 2 2 2 2 2 2 2 2 2 2 2 2 2 2 2 2 2 2 2 2 2 2
left_child=2 3 8 4 5 25 9 21 12 10 -7 22 26 14 -14 -4 -17 -18 -5 20 28 -6 -3 27 -10 -2 -1 -12 -8 -30
right_child=1 11 15 18 7 6 19 -9 24 -11 23 -13 13 -15 -16 16 17 -19 -20 -21 -22 -23 -24 -25 -26 -27 -28 -29 29 -31
leaf_value=-0.00019348365360238526 0.000453321607159343 0.0030817217861997519 0.0007948867077356268 0.0079831092803546357 -0.0023107104761528343 -0.00058326989174550521 -0.0013480776244797989 0.0021934054792078161 0.0058450794284732963 0.0006803740023009154 0.0025440209781122662 0.0038744937004228245 0.0038685552318043492 -0.001036898977438984 0.00068874456973458094 -0.00047670628566979888 0.0060584242280179229 0.00236081279633105 -0.00083581222013621504 0.0010356856994031391 0.0032630230982697637 0.00026711700012040432 0.0012280803458939076 0.0070442373908278511 -0.0004888324712196484 0.0018719215830649305 0.0060859948678030056 0.0076193752487995099 0.0078501056332426593 -0.0016597894959397581
leaf_weight=7296297 147284 40947 89897 7159 27840 19008 924 17495 5985 68673 93556 71323 19137 21668 40234 7834 7633 22400 1163 8228 23198 17647 39665 3718 2374 43790 1651 2521 10972 809
leaf_count=7296297 147284 40947 89897 7159 27840 19008 924 17495 5985 68673 93556 71323 19137 21668 40234 7834 7633 22400 1163 8228 23198 17647 39665 3718 2374 43790 1651 2521 10972 809
internal_value=0 0.00173662 -0.000149262 0.00135729 0.00126487 0.0015036 0.00210185 -0.000337283 -0.000174429 0.00170179 0.0022922 0.00296995 -0.00017921 0.000978245 0.00171369 0.00130592 0.00251912 0.00330057 0.00675066 0.00380141 0.00443524 -0.00131062 0.00216964 0.0028399 0.00404622 0.000778434 -0.000192063 0.0026772 0.0065756 0.00719706
internal_weight=0 645920 7.51511e+06 493985 485663 422681 231607 62982 7.38735e+06 187476 118803 151935 7.37899e+06 81039 59371 127764 37867 30033 8322 44131 35903 45487 80612 99795 8359 191074 7.29795e+06 96077 12705 11781
internal_count=8161030 645920 7515110 493985 485663 422681 231607 62982 7387346 187476 118803 151935 7378987 81039 59371 127764 37867 30033 8322 44131 35903 45487 80612 99795 8359 191074 7297948 96077 12705 11781
is_linear=0
shrinkage=0.1


Tree=21
num_leaves=31
num_cat=0
split_feature=6 4 0 46 55 54 0 1 55 54 1 0 55 54 4 4 50 54 48 48 17 1 2 1 7 11 26 5 0 8
split_gain=173.136 30.6808 22.5204 21.0823 17.4194 16.8009 18.3299 24.5943 20.6187 16.7674 14.6947 30.3312 14.9327 14.0541 12.9393 14.5345 12.2683 11.7509 10.5766 9.51585 8.9958 9.35969 8.98715 9.13294 8.87151 8.66751 8.84421 8.58377 8.26526 8.03141
threshold=0.018007142857142854 0.028400000000000005 499995.00000000006 0.39200000000000007 12515.000000000002 2634.5000000000005 396844.50000000006 308190.00000000006 18457.500000000004 16486.500000000004 171634.50000000003 463311.00000000006 8144.5000000000009 17578.000000000004 0.49950000000000006 0.50050000000000006 26.500000000000004 16486.500000000004 5539.0000000000009 6319.5000000000009 5.4350000000000014 101640.50000000001 12.500000000000002 206615.00000000003 1.0000000180025095e-35 2.8300000000000005 28.350000000000005 1.0000000180025095e-35 314921.00000000006 1.0000000180025095e-35
decision_type=2 2 2 2 2 2 2 2 2 2 2 2 2 2 2 2 2 2 2 2 2 2 2 2 2 2 2 2 2 2
left_child=1 -1 16 5 -4 -2 8 10 20 29 11 -8 13 -12 -13 -16 -3 19 22 -14 21 28 23 -18 -24 -26 -27 -23 -7 -9
right_child=3 2 4 -5 -6 6 7 9 -10 -11 12 14 17 -15 15 -17 18 -19 -20 -21 -22 27 24 -25 25 26 -28 -29 -30 -31
leaf_value=-0.00017933709400808946 -0.001259538828570462 -0.00019502302300078051 0.002753227263803215 0.0094676799982597714 -0.00038953063885652418 0.0060860464264773052 -0.0016903010522544767 -0.0024093573021569449 -0.0010646541072961459 -0.0011017719512306191 0.0024311689348345497 0.0019824251691450746 0.0045194145071399683 0.0069599022898590539 0.018045733149389277 0.0044556662947872029 -0.0031058763612402287 0.001290526089689241 0.00051860676654968789 0.00084763493938421895 0.0066623119299176739 -0.0014405808825120015 0.0032281850771671752 0.003816706770932877 0.0024081220514825959 -0.0061081746041194464 0.02030116421884132 0.0032037096472259104 -0.0013657909650393351 0.0014218229943190612
leaf_weight=7039944 18512 249468 71679 3517 23392 1804 26814 5842 13571 49564 12887 45852 27536 14634 1034 3294 2061 57042 210043 9491 6435 4104 4678 25306 2301 3962 131 131286 8509 86337
leaf_count=7039944 18512 249468 71679 3517 23392 1804 26814 5842 13571 49564 12887 45852 27536 14634 1034 3294 2061 57042 210043 9491 6435 4104 4678 25306 2301 3962 131 131286 8509 86337
internal_value=0 -0.000121149 0.000569626 0.00175115 0.00197996 0.00169942 0.00180766 0.0013877 0.00267017 0.000381481 0.0021059 0.00102489 0.00279042 0.00483927 0.00247578 0.00770246 0.000300358 0.00219101 0.000797706 0.00357824 0.00300332 0.00284172 0.00232279 0.00329537 -8.11594e-05 -0.00250235 -0.00526292 0.00306293 -6.22794e-05 0.00117902
internal_weight=0 7.63296e+06 593021 528065 95071 524548 506036 340327 165709 141743 198584 76994 121590 27521 50180 4328 497950 94069 248482 37027 152138 145703 38439 27367 11072 6394 4093 135390 10313 92179
internal_count=8161030 7632965 593021 528065 95071 524548 506036 340327 165709 141743 198584 76994 121590 27521 50180 4328 497950 94069 248482 37027 152138 145703 38439 27367 11072 6394 4093 135390 10313 92179
is_linear=0
shrinkage=0.1


Tree=22
num_leaves=31
num_cat=0
split_feature=3 10 10 47 47 4 8 47 1 55 0 48 5 9 48 17 47 4 50 46 11 11 46 54 12 3 4 4 1 6
split_gain=144.375 22.7874 20.3095 17.5171 15.4646 15.4324 17.9522 13.8624 9.76195 12.1026 8.66288 9.29627 8.86792 8.57346 11.5245 8.56865 8.04403 7.74197 7.44115 6.86866 6.48754 6.42083 6.41102 6.2161 6.46612 6.11596 9.42321 7.30928 6.10008 5.74255
threshold=3.2150000000000003 1.5025000000000002 2.0050000000000003 0.25050000000000006 1.0000000180025095e-35 1.0000000180025095e-35 10.110000000000001 0.21050000000000002 143493.00000000003 15061.500000000002 560819.00000000012 943.50000000000011 5.9350000000000014 154.50000000000003 16226.500000000002 5.4850000000000012 0.083050000000000013 0.095150000000000012 24.500000000000004 0.29050000000000004 16.250000000000004 15.925000000000002 0.20050000000000004 21723.500000000004 58.050000000000004 1.0000000180025095e-35 0.49950000000000006 0.50050000000000006 553077.00000000012 0.011050000000000003
decision_type=2 2 2 2 2 2 2 2 2 2 2 2 2 2 2 2 2 2 2 2 2 2 2 2 2 2 2 2 2 2
left_child=2 3 7 4 5 -2 8 13 19 10 12 -12 -10 22 18 17 -6 -3 -15 -7 -5 -9 -1 24 -13 -4 -27 -28 -19 -8
right_child=1 15 25 20 16 6 29 21 9 -11 11 23 -14 14 -16 -17 -18 28 -20 -21 -22 -23 -24 -25 -26 26 27 -29 -30 -31
leaf_value=-0.00015441398437703686 -0.0019187353890760756 0.0016035534142563091 -0.00059859366289935489 0.0060901199342543628 -0.0017891510004868398 0.00059841276736951189 -0.00019111366981918845 0.0052522372998024527 0.0024713959507603094 0.00048469153892398648 -0.0019693385237717041 0.0022470895045957704 0.0044942678234523069 -0.0010843422143091968 0.0034257442425230083 0.0055065308240874094 0.00061470836810483844 0.0031539809204730119 0.0011606252830580303 0.014610125783705727 -0.00031875698880176904 -0.00053392466851862172 0.0080523749657554662 -0.0010943137068338499 0.0074928364295305935 0.0012669255371418019 0.010735478815502927 0.0033885794341927248 -0.0030109339072690246 0.001031362696394381
leaf_weight=7374118 14932 76911 12542 9339 26972 39285 52237 6962 46777 24190 6530 9302 40378 23697 14686 8887 28768 75257 39169 353 1901 2647 952 3704 3144 58147 1550 10717 1640 145336
leaf_count=7374118 14932 76911 12542 9339 26972 39285 52237 6962 46777 24190 6530 9302 40378 23697 14686 8887 28768 75257 39169 353 1901 2647 952 3704 3144 58147 1550 10717 1640 145336
internal_value=0 0.00147222 -0.000120164 0.00110774 0.00100858 0.00123333 0.00136011 -0.000137462 0.00210184 0.00250957 0.00295553 0.00121458 0.00340857 -0.000142356 0.000903592 0.00248741 -0.000548494 0.00231296 0.000314397 0.000723195 0.0050062 0.00365832 -0.000153355 0.00250195 0.00357222 0.00143589 0.00179827 0.0043169 0.0030225 0.000708148
internal_weight=0 615843 7.54519e+06 453148 441908 386168 371236 7.46223e+06 173663 134025 109835 22680 87155 7.45262e+06 77552 162695 55740 153808 62866 39638 11240 9609 7.37507e+06 16150 12446 82956 70414 12267 76897 197573
internal_count=8161030 615843 7545187 453148 441908 386168 371236 7462231 173663 134025 109835 22680 87155 7452622 77552 162695 55740 153808 62866 39638 11240 9609 7375070 16150 12446 82956 70414 12267 76897 197573
is_linear=0
shrinkage=0.1


Tree=23
num_leaves=31
num_cat=0
split_feature=7 8 4 1 46 10 3 3 50 48 3 55 0 11 1 4 4 55 48 48 0 23 48 17 17 10 47 5 40 9
split_gain=116.986 25.1744 22.6791 15.8464 14.4186 12.6373 13.9409 16.2937 11.7303 10.9216 16.1629 14.4796 9.98837 9.07092 8.21279 7.86937 18.4695 12.8115 12.9597 7.61556 7.45275 7.16672 7.07348 6.86076 6.83503 6.67012 6.35375 6.32794 6.25562 6.2073
threshold=0.00040250000000000003 9.2750000000000004 0.13550000000000004 443282.50000000006 0.13050000000000003 0.95000000000000007 0.99950000000000017 1.0050000000000001 26.500000000000004 3184.5000000000005 7.0150000000000006 10327.500000000002 460615.50000000006 28.650000000000002 225895.00000000003 0.49950000000000006 0.50050000000000006 13254.000000000002 6012.5000000000009 21246.000000000004 466222.50000000006 0.66500000000000015 1164.5000000000002 4.7150000000000007 2.5250000000000004 2.0050000000000003 0.31750000000000006 7.4250000000000007 65.200000000000017 1.0000000180025095e-35
decision_type=2 2 2 2 2 2 2 2 2 2 2 2 2 2 2 2 2 2 2 2 2 2 2 2 2 2 2 2 2 2
left_child=2 8 4 9 26 24 -7 21 -2 11 25 -3 14 -6 -12 -9 17 28 22 -14 -5 -8 -19 27 -4 -11 -1 -10 -17 -24
right_child=1 3 5 20 13 6 7 15 23 10 12 -13 19 -15 -16 16 -18 18 -20 -21 -22 -23 29 -25 -26 -27 -28 -29 -30 -31
leaf_value=-0.00013605561613428096 0.0011059546012795963 0.0020548842450991648 0.00047737917377467585 -7.6545514400886409e-05 0.0042322266897910372 0.00020525767014570773 0.015620519496770041 0.0018708045361794927 0.0022756916266880893 0.00067968458468361007 0.00052361880835839791 -0.0013407185027500173 0.0029726478041822153 -0.0019830434797266645 0.0028750974755970323 0.014634444714107214 0.0022107917291542883 -0.025636577467833252 0.017918851212571467 0.0068719720634146959 -0.0030537252530456142 -0.004226822106213105 0.011139997078633914 0.0063136872631416961 -0.0051427058109395039 0.0020186711751766216 0.0049541831083599174 0.0042035679340142722 -0.018517816446496752 -0.0085516847580095427
leaf_weight=7417734 69518 19101 11586 70061 11809 12597 1617 12595 115913 199831 25541 36661 13764 2931 35493 3049 6544 140 346 7874 9555 205 261 5047 2661 45714 2453 19957 58 414
leaf_count=7417734 69518 19101 11586 70061 11809 12597 1617 12595 115913 199831 25541 36661 13764 2931 35493 3049 6544 140 346 7874 9555 205 261 5047 2661 45714 2453 19957 58 414
internal_value=0 0.00126185 -0.000113601 0.000850108 -0.000128166 0.00196605 0.00292212 0.00427866 0.00216894 0.00111633 0.00133615 -0.000177571 0.00254554 0.00299634 0.00189107 0.00356964 0.00554863 0.0106664 0.00170365 0.0043916 -0.000433847 0.0133874 -0.00518034 0.00269334 -0.000572319 0.000928969 -0.000134373 0.00255886 0.0140156 -0.000937568
internal_weight=0 674030 7.487e+06 463595 7.43493e+06 52073 37826 25229 210435 383979 328217 55762 82672 14740 61034 23407 10812 4268 1161 21638 79616 1822 815 140917 14247 245545 7.42019e+06 135870 3107 675
internal_count=8161030 674030 7487000 463595 7434927 52073 37826 25229 210435 383979 328217 55762 82672 14740 61034 23407 10812 4268 1161 21638 79616 1822 815 140917 14247 245545 7420187 135870 3107 675
is_linear=0
shrinkage=0.1


Tree=24
num_leaves=31
num_cat=0
split_feature=3 17 12 2 9 1 10 4 0 48 0 54 3 55 47 3 53 10 1 12 50 48 54 23 11 48 15 1 46 48
split_gain=99.037 18.7209 16.5104 14.9357 15.3887 14.1793 13.2883 12.4679 12.0107 11.3805 21.8432 10.8348 9.94638 9.8856 8.69914 8.44743 8.33574 7.80353 7.09188 7.02018 6.78762 6.76281 6.52843 6.17259 8.07569 8.25034 6.19097 5.58008 5.50339 5.26952
threshold=3.2150000000000003 4.5500000000000007 40.216666666666676 11.500000000000002 1.0000000180025095e-35 266828.50000000006 1.4350000000000003 0.15450000000000003 591588.50000000012 21068.500000000004 449479.00000000006 18105.500000000004 7.4250000000000007 6256.5000000000009 0.26050000000000006 6.0750000000000011 9.5000000000000018 0.95000000000000007 405947.50000000006 9.7050000000000018 23.500000000000004 21459.000000000004 16282.500000000002 2.7800000000000007 1.0000000180025095e-35 9739.5000000000018 186.50000000000003 301641.50000000006 0.16250000000000003 5306.5000000000009
decision_type=2 2 2 2 2 2 2 2 2 2 2 2 2 2 2 2 2 2 2 2 2 2 2 2 2 2 2 2 2 2
left_child=6 2 7 5 27 8 14 9 13 16 21 15 -12 -4 -1 -7 28 -3 -17 29 -8 -11 -14 24 -6 26 -26 -5 -2 -9
right_child=1 17 3 4 23 11 20 19 -10 10 12 -13 22 -15 -16 18 -18 -19 -20 -21 -22 -23 -24 -25 25 -27 -28 -29 -30 -31
leaf_value=-0.00012152621701229811 0.00010823523367161168 -0.0016930701551525736 0.00034812883928084134 0.0034145966045191416 0.0012431259008773966 0.0009776619930793012 0.00010188634366644131 -0.00049453663510260588 0.00064421091463532157 0.0025839358673989954 0.0021591097320140256 8.6591035404262785e-05 0.0028849155533313721 0.0059506853376388568 0.0035671460320741404 0.0041983042970303803 0.001567724527535095 0.0046550934307113233 -0.00046741814017274216 0.0038252262585114234 0.0014582350221973399 -0.0016887504013251783 0.007466525404745971 0.005887245124648127 -0.0095817916496620456 0.00029612633098411562 -0.0015906721352238629 -0.00021262936002119166 0.0031245494178969648 0.0020224444609543519
leaf_weight=7390169 276892 2140 3626 9492 2350 18809 68104 10598 7265 4850 22923 24338 5197 23962 6399 27928 50592 20353 3688 17246 80515 15684 7745 704 3857 1797 1295 7667 6184 38661
leaf_count=7390169 276892 2140 3626 9492 2350 18809 68104 10598 7265 4850 22923 24338 5197 23962 6399 27928 50592 20353 3688 17246 80515 15684 7745 704 3857 1797 1295 7667 6184 38661
internal_value=0 0.00121934 0.001112 0.00207576 -2.34763e-05 0.00259593 -9.95236e-05 0.000823276 0.00426169 0.000607501 0.00192131 0.00181939 0.00341041 0.00521432 -0.000118335 0.00265573 0.000385431 0.00405112 0.00365405 0.00208884 0.000836694 -0.000679569 0.00562673 -0.00314094 -0.00382443 -0.00553817 -0.00757315 0.00179388 0.000174129 0.00148092
internal_weight=0 615843 593350 136778 27162 109616 7.54519e+06 456572 34853 390067 56399 74763 35865 27588 7.39657e+06 50425 333668 22493 31616 66505 148619 20534 12942 10003 9299 6949 5152 17159 283076 49259
internal_count=8161030 615843 593350 136778 27162 109616 7545187 456572 34853 390067 56399 74763 35865 27588 7396568 50425 333668 22493 31616 66505 148619 20534 12942 10003 9299 6949 5152 17159 283076 49259
is_linear=0
shrinkage=0.1


Tree=25
num_leaves=31
num_cat=0
split_feature=3 17 4 10 54 47 55 54 46 1 2 1 48 55 3 48 54 48 9 9 50 48 2 1 0 4 12 53 0 0
split_gain=80.22 15.3625 14.1264 11.4125 10.6833 10.0907 9.61746 11.9423 9.32387 9.24997 8.79054 11.0492 8.70026 12.4423 9.66835 8.0084 7.05922 7.00779 6.837 6.7579 9.00422 7.37597 6.61553 6.49986 6.08863 5.9449 5.94275 5.93325 5.73129 10.716
threshold=3.2150000000000003 4.1550000000000011 0.030050000000000004 2.101666666666667 3585.5000000000005 0.34150000000000008 17301.500000000004 15881.500000000002 0.30050000000000004 550517.50000000012 5.5000000000000009 111126.00000000001 3184.5000000000005 10732.500000000002 10.050000000000002 4121.5000000000009 21723.500000000004 8694.0000000000018 231.50000000000003 160.50000000000003 23.500000000000004 16226.500000000002 17.500000000000004 228939.00000000003 392848.50000000006 1.0000000180025095e-35 57.150000000000013 9.5000000000000018 373143.50000000006 459135.50000000006
decision_type=2 2 2 2 2 2 2 2 2 2 2 2 2 2 2 2 2 2 2 2 2 2 2 2 2 2 2 2 2 2
left_child=3 2 5 8 -4 25 10 9 19 17 11 -6 13 16 15 23 26 -8 -12 -1 -21 -22 -3 24 -14 -2 -13 -27 -17 -30
right_child=1 22 4 -5 6 -7 7 -9 -10 -11 18 12 14 -15 -16 28 -18 -19 -20 20 21 -23 -24 -25 -26 27 -28 -29 29 -31
leaf_value=-0.00011368490239935514 -0.0015921714278192872 0.003694136401680947 -0.00060015436834191815 0.0011239307460024629 -0.00094562982845867072 0.0087076889100729544 0.0050969841360049978 -0.0029674381301540214 0.0059073361295511701 -0.0020636702389983052 0.0011882583229916937 0.0019146030044014471 0.0023273861773854773 -0.00038740861841685538 0.004458913233479289 0.0032384123488093525 -0.0025480585035215515 0.00098541015984278803 -0.0013721121129570955 -0.00066025082397020178 0.0010430371314437991 0.0041633598609717914 -0.00813133184241587 0.0054189443739653996 -0.0091498039762477057 0.00018913862959386174 0.0050573725571704219 0.0016080321187305101 0.00075885067834844137 0.0029524538315931436
leaf_weight=7391084 15463 25543 25705 76712 11976 1436 5785 9963 2581 6992 67721 16380 3107 28046 22764 27138 2449 14626 12328 26031 39400 9379 482 12446 543 164923 9510 35883 58781 35853
leaf_count=7391084 15463 25543 25705 76712 11976 1436 5785 9963 2581 6992 67721 16380 3107 28046 22764 27138 2449 14626 12328 26031 39400 9379 482 12446 543 164923 9510 35883 58781 35853
internal_value=0 0.00109741 0.000992496 -8.95713e-05 0.00136682 0.000352674 0.00151278 -2.54526e-06 -0.000102036 0.00107541 0.001696 0.00201133 0.00217451 0.00110581 0.00254964 0.00223439 0.0025836 0.00215074 0.000793947 -0.000104113 0.000841556 0.001643 0.00347512 0.0043307 0.000619958 0.000297197 0.00306902 0.000442688 0.0019573 0.00158992
internal_weight=0 615843 589818 7.54519e+06 372113 217705 346408 37366 7.46848e+06 27403 309042 228993 217017 56385 160632 137868 28339 20411 80049 7.46589e+06 74810 48779 26025 16096 3650 216269 25890 200806 121772 94634
internal_count=8161030 615843 589818 7545187 372113 217705 346408 37366 7468475 27403 309042 228993 217017 56385 160632 137868 28339 20411 80049 7465894 74810 48779 26025 16096 3650 216269 25890 200806 121772 94634
is_linear=0
shrinkage=0.1


Tree=26
num_leaves=31
num_cat=0
split_feature=7 50 4 3 4 6 2 8 46 3 3 11 1 17 55 48 48 48 48 6 46 47 29 48 17 10 55 54 54 14
split_gain=66.1425 19.0733 15.1021 17.8536 17.4936 11.9407 12.2941 11.374 9.57393 9.26451 8.46255 8.00652 7.20852 6.91844 6.66408 9.3553 6.40963 6.30801 8.60861 6.02252 5.88002 5.4871 5.58059 5.4494 5.34529 5.15058 4.95307 7.63868 7.62923 7.7283
threshold=0.00043500000000000006 27.500000000000004 0.49950000000000006 0.99950000000000017 0.50050000000000006 0.0036500000000000005 11.500000000000002 8.8050000000000015 0.14050000000000004 4.3050000000000006 1.0050000000000001 35.300000000000004 452110.00000000006 3.6650000000000005 14367.500000000002 1744.5000000000002 10390.500000000002 16440.000000000004 15359.500000000002 0.06405000000000001 0.40950000000000003 0.33050000000000007 6.7650000000000015 7272.5000000000009 71.65000000000002 1.1050000000000002 10633.500000000002 16486.500000000004 16104.500000000002 14.350000000000003
decision_type=2 2 2 2 2 2 2 2 2 2 2 2 2 2 2 2 2 2 2 2 2 2 2 2 2 2 2 2 2 2
left_child=2 9 8 -4 5 6 -5 17 21 16 -6 20 -9 19 24 -16 -2 18 -3 26 -10 22 25 -23 -8 -1 28 -28 29 -11
right_child=1 7 3 4 10 -7 14 12 11 13 -12 -13 -14 -15 15 -17 -18 -19 -20 -21 -22 23 -24 -25 -26 -27 27 -29 -30 -31
leaf_value=-0.00010628422324813247 -0.0008193195897090573 0.0023022047665425291 -0.00061308610444209309 -0.0022480766352531759 0.013916549134442461 0.015317390297715425 0.012234411460685423 0.0013813840250429925 0.0026411170149705904 9.3548166360715588e-05 0.00093350508085461364 -0.002273526848595905 -0.00023423159816336812 0.003427605411795097 -0.023161967288940512 0.0081875125928416396 0.00046507502907286484 0.0039540448050628414 -0.0016756836568600738 0.0019375739776795202 0.0093473501228001493 0.0089885297056247603 -0.0017853573898724908 6.8791565208453322e-05 -0.016617738873218046 0.00050619297425101746 0.00070955879371768739 -0.0015443572826340033 0.0023540167880577861 0.0065236241525876973
leaf_weight=7304854 69743 74011 11731 1318 535 1893 2370 166780 11888 52640 8152 3085 33097 10489 141 293 87727 21094 5872 36375 1469 1324 19577 1419 66 139932 38697 24592 27928 1938
leaf_count=7304854 69743 74011 11731 1318 535 1893 2370 166780 11888 52640 8152 3085 33097 10489 141 293 87727 21094 5872 36375 1469 1324 19577 1419 66 139932 38697 24592 27928 1938
internal_value=0 0.000966951 -8.38169e-05 0.00229925 0.00461268 0.00872632 0.00574712 0.00155089 -9.22553e-05 0.000465195 0.00173308 0.00231815 0.00111386 0.000930247 0.00941878 -0.00199746 -0.00010378 0.00241595 0.0020098 0.000786454 0.00337867 -9.75628e-05 -9.92061e-05 0.0043742 0.0114527 -9.47721e-05 0.000499257 -0.000166238 0.00100975 0.000321873
internal_weight=0 650983 7.51005e+06 26499 14768 6081 4188 300854 7.48355e+06 350129 8687 16442 199877 192659 2870 434 157470 100977 79883 182170 13357 7.46711e+06 7.46436e+06 2743 2436 7.44479e+06 145795 63289 82506 54578
internal_count=8161030 650983 7510047 26499 14768 6081 4188 300854 7483548 350129 8687 16442 199877 192659 2870 434 157470 100977 79883 182170 13357 7467106 7464363 2743 2436 7444786 145795 63289 82506 54578
is_linear=0
shrinkage=0.1


Tree=27
num_leaves=31
num_cat=0
split_feature=6 46 54 0 1 55 47 54 10 55 11 1 54 1 54 54 5 55 7 9 6 15 4 3 2 48 0 48 12 10
split_gain=54.8522 12.1668 10.9078 13.028 13.072 12.2291 10.8827 10.235 9.448 9.05296 8.93625 8.9151 20.0715 9.9623 10.9777 9.09602 7.23842 8.02591 6.69865 6.64147 8.50849 24.9879 6.55761 15.1132 6.33005 6.26196 7.03272 5.98516 8.75674 9.65378
threshold=0.019050000000000001 0.40150000000000008 2634.5000000000005 396844.50000000006 308190.00000000006 18457.500000000004 0.26050000000000006 18105.500000000004 1.4550000000000003 16900.500000000004 1.0000000180025095e-35 171634.50000000003 16104.500000000002 206615.00000000003 17395.500000000004 16486.500000000004 0.25550000000000006 11178.000000000002 0.00034500000000000009 1.0000000180025095e-35 1.0000000180025095e-35 1.0000000180025095e-35 0.49950000000000006 0.99950000000000017 8.5000000000000018 8694.0000000000018 406039.50000000006 8127.0000000000009 25.425000000000001 1.0000000180025095e-35
decision_type=2 2 2 2 2 2 2 2 2 2 2 2 2 2 2 2 2 2 2 2 2 2 2 2 2 2 2 2 2 2
left_child=6 2 -2 5 11 9 8 24 -1 -4 16 12 -5 14 -13 -15 17 -10 -8 22 21 -21 -12 -24 25 27 -27 28 29 -6
right_child=1 -3 3 4 7 -7 18 -9 10 -11 19 13 -14 15 -16 -17 -18 -19 -20 20 -22 -23 23 -25 -26 26 -28 -29 -30 -31
leaf_value=-8.5811797589448462e-05 -0.0015127859757302991 0.0071410123101847498 0.0017927780941103576 -0.0017321861799847113 0.0013228901588824467 -0.0011719004316091139 0.0018314224531756679 -0.0016884499090211306 0.0040240104642555122 0.0044530163074945287 0.00034357156441459756 0.0012603094055867051 0.0016647143848341301 0.0025288206201845454 0.0054731452193942749 0.00050403361426292522 0.00021466181799965163 0.00097257109495839638 0.0084619127836168938 -0.0081856120758248396 -9.5786636493810776e-05 0.0033354738411322405 -0.00035652120319677066 0.0077875414776155385 -0.0013981842623375324 0.0057291387143660029 -0.0005884770121205447 0.0037447124021890901 0.002571867157758896 -0.002624208681772881
leaf_weight=7503841 17165 3210 133591 28242 15465 12823 5178 29926 18674 14147 31651 11435 45288 36218 13473 57269 19685 16009 2159 4847 36471 3078 4967 4210 16520 1855 35163 9169 18962 10339
leaf_count=7503841 17165 3210 133591 28242 15465 12823 5178 29926 18674 14147 31651 11435 45288 36218 13473 57269 19685 16009 2159 4847 36471 3078 4967 4210 16520 1855 35163 9169 18962 10339
internal_value=0 0.00100388 0.000965026 0.00105185 0.000691766 0.0017904 -6.69526e-05 -5.28519e-05 -7.06478e-05 0.00204752 0.000744502 0.00122484 0.000360005 0.00176195 0.00353908 0.00128846 0.00174625 0.00261553 0.00378252 0.000105447 -0.000741114 -0.00371092 0.00102599 0.00337961 0.000402582 0.00072966 -0.000271897 0.00141707 0.000940324 -0.000258611
internal_weight=0 510260 507050 489885 329324 160561 7.65077e+06 137399 7.64343e+06 147738 139592 191925 73530 118395 24908 93487 54368 34683 7337 85224 44396 7925 40828 9177 107473 90953 37018 53935 44766 25804
internal_count=8161030 510260 507050 489885 329324 160561 7650770 137399 7643433 147738 139592 191925 73530 118395 24908 93487 54368 34683 7337 85224 44396 7925 40828 9177 107473 90953 37018 53935 44766 25804
is_linear=0
shrinkage=0.1


Tree=28
num_leaves=31
num_cat=0
split_feature=3 12 2 9 1 0 48 55 8 8 0 55 48 46 0 10 23 1 11 2 17 4 6 48 54 10 14 55 54 9
split_gain=47.4571 12.7789 10.3349 10.5405 9.30363 9.33439 9.03882 10.3786 8.49039 12.3571 10.1564 11.8845 8.00898 7.54011 7.47086 6.88944 6.75825 6.49359 6.46322 6.22924 5.57615 6.01949 5.47105 5.24989 5.84075 5.66754 7.85921 4.97802 6.62034 5.57993
threshold=3.6050000000000004 40.216666666666676 11.500000000000002 1.0000000180025095e-35 266828.50000000006 591588.50000000012 3184.5000000000005 12432.500000000002 1.0000000180025095e-35 8.9750000000000032 501818.00000000006 8747.5000000000018 5599.5000000000009 0.32450000000000007 368608.50000000006 3.0050000000000003 2.7800000000000007 383139.00000000006 1.0000000180025095e-35 8.5000000000000018 3.8250000000000006 0.22050000000000003 0.0036500000000000005 8694.0000000000018 6950.5000000000009 1.0000000180025095e-35 8.0850000000000026 17301.500000000004 16104.500000000002 260.50000000000006
decision_type=2 2 2 2 2 2 2 2 2 2 2 2 2 2 2 2 2 2 2 2 2 2 2 2 2 2 2 2 2 2
left_child=13 6 4 -4 5 12 7 -2 19 -10 20 -12 -3 15 17 -1 18 -6 -5 -8 21 23 -20 24 -11 -26 -27 28 29 -25
right_child=1 2 3 16 14 -7 8 -9 9 10 11 -13 -14 -15 -16 -17 -18 -19 22 -21 -22 -23 -24 27 25 26 -28 -29 -30 -31
leaf_value=-7.5670976032608318e-05 0.00047607292893426351 0.0054655543082332819 0.001538636820205212 0.00071638031258721064 0.0063006140819642778 0.00021214259686549747 -0.0017003378642961064 -0.0022165638602813513 0.0024171426293944811 -0.00087250398715962938 0.0035963592723109155 -0.0015288769520591223 0.0019698825739963631 0.0046811764372300269 0.001157185985560348 0.001174241585502995 0.0059339449390831559 0.00043747481534970288 -0.0084897857733633158 0.0005216132492944117 0.0024951159008152432 0.002039726023342992 -0.0026840986298534053 -0.0002488569497802939 0.0024902898093281233 -0.00063176117471255887 0.0034403776498816833 -0.0016511297734678517 0.0030750240376081067 0.0024441143016690437
leaf_weight=7540298 39023 18927 16495 2876 5575 7114 21341 22608 50923 13499 21876 5704 10026 3344 67582 44358 871 2857 2650 30866 13377 20262 4189 109280 26325 18854 6331 18173 7149 8277
leaf_count=7540298 39023 18927 16495 2876 5575 7114 21341 22608 50923 13499 21876 5704 10026 3344 67582 44358 871 2857 2650 30866 13377 20262 4189 109280 26325 18854 6331 18173 7149 8277
internal_value=0 0.000877512 0.00171134 -4.18386e-05 0.00213494 0.00345761 0.000610064 -0.000511663 0.000795788 0.000988684 0.000718377 0.00253638 0.00425505 -6.62679e-05 0.00150736 -6.8361e-05 -0.00250452 0.00431402 -0.00326107 -0.000386668 0.00051078 0.000394433 -0.00493371 0.000234073 0.000979076 0.00146431 0.000391892 -0.000104898 0.000120429 -5.92492e-05
internal_weight=0 573030 139162 27081 112081 36067 433868 61631 372237 320030 269107 27580 28953 7.588e+06 76014 7.58466e+06 10586 8432 9715 52207 241527 228150 6839 207888 65009 51510 25185 142879 124706 117557
internal_count=8161030 573030 139162 27081 112081 36067 433868 61631 372237 320030 269107 27580 28953 7588000 76014 7584656 10586 8432 9715 52207 241527 228150 6839 207888 65009 51510 25185 142879 124706 117557
is_linear=0
shrinkage=0.1


Tree=29
num_leaves=31
num_cat=0
split_feature=3 12 12 10 0 46 55 54 0 2 1 55 4 13 47 11 3 48 48 0 16 9 50 1 48 7 5 48 55 54
split_gain=38.4403 10.5616 8.78487 8.15096 7.96617 7.43958 7.0333 10.3798 6.86203 7.78615 7.88032 6.81595 6.45128 8.82772 6.44173 6.89187 6.29527 7.56812 8.99094 8.00688 6.01231 6.64328 7.76124 5.69857 7.16764 7.66751 8.72358 6.45661 17.9812 5.86467
threshold=3.6050000000000004 43.750000000000007 127.50000000000001 2.0150000000000001 366763.00000000006 0.35250000000000004 14541.500000000002 16041.500000000002 588056.00000000012 3.5000000000000004 266828.50000000006 21209.500000000004 0.27850000000000008 90.850000000000009 0.16050000000000003 16.412500000000005 1.0000000180025095e-35 10213.500000000002 11502.500000000002 499995.00000000006 1.0000000180025095e-35 61.45000000000001 26.500000000000004 143493.00000000003 3478.0000000000005 1.0000000180025095e-35 10.550000000000002 22393.500000000004 5836.5000000000009 16104.500000000002
decision_type=2 2 2 2 2 2 2 2 2 2 2 2 2 2 2 2 2 2 2 2 2 2 2 2 2 2 2 2 2 2
left_child=12 3 8 5 -4 6 23 -8 9 10 -3 -11 14 16 20 -16 -14 19 -19 -18 21 -1 -23 29 -25 -26 27 -27 -29 -2
right_child=1 2 4 -5 -6 -7 7 -9 -10 11 -12 -13 13 -15 15 -17 17 18 -20 -21 -22 22 -24 24 25 26 -28 28 -30 -31
leaf_value=-7.8698976396160346e-05 -0.00028265161681150793 0.0043499864708018655 0.0062254316369520606 0.0017844605266721136 -0.0013354085483160191 0.0069517426046044745 0.00033593418683327522 -0.002213936412643521 0.00010853407842807868 0.00088461405670557506 0.0020629940160419333 -0.011365559743014807 -0.00063377479915839759 -0.0031244953049040475 0.003280675632355433 -0.0012361597992607324 -0.0010045579055269155 0.008365246872745603 0.0023436933593280287 0.0036697526678818094 -0.0010673775466909384 -0.00018977893729449106 0.0011601624966316949 -5.902322684667497e-05 -0.00079663342803248027 0.0014574652075605835 0.0039306007736293882 0.0099727241694877178 -0.0022728094187677989 0.001898947419477505
leaf_weight=7278671 95859 22018 1544 48688 14297 1733 48219 23866 17528 21493 47722 464 12770 4860 11292 4820 12892 2785 22615 5120 60224 77699 94252 58802 16596 114532 13128 1345 11056 14140
leaf_count=7278671 95859 22018 1544 48688 14297 1733 48219 23866 17528 21493 47722 464 12770 4860 11292 4820 12892 2785 22615 5120 60224 77699 94252 58802 16596 114532 13128 1345 11056 14140
internal_value=0 0.000789761 0.00160227 0.000562918 -0.000598464 0.000413962 0.000385462 -0.00050828 0.00192145 0.00226799 0.00278503 0.000625741 -5.96411e-05 0.000964252 -6.79447e-05 0.00192944 0.00131795 0.00189206 0.00300393 0.000324138 -7.22294e-05 -6.41855e-05 0.000550168 0.000583416 0.000882399 0.00123577 0.00147659 0.00122278 -0.000944671 -2.21443e-06
internal_weight=0 573030 125066 447964 15841 399276 397543 72085 109225 91697 69740 21957 7.588e+06 61042 7.52696e+06 16112 56182 43412 25400 18012 7.51085e+06 7.45062e+06 171951 325458 215459 156657 140061 126933 12401 109999
internal_count=8161030 573030 125066 447964 15841 399276 397543 72085 109225 91697 69740 21957 7588000 61042 7526958 16112 56182 43412 25400 18012 7510846 7450622 171951 325458 215459 156657 140061 126933 12401 109999
is_linear=0
shrinkage=0.1


Tree=30
num_leaves=31
num_cat=0
split_feature=7 50 4 3 4 6 2 47 47 47 47 11 3 1 1 48 48 46 47 47 17 47 54 55 48 46 48 29 17 50
split_gain=31.1978 14.6772 9.07429 11.7247 13.7315 9.62097 9.18672 6.93726 10.8927 7.49101 6.66852 8.03544 6.48165 6.45774 9.62325 6.28647 6.97775 5.931 5.56599 8.46651 6.58846 6.30128 5.56262 5.25759 7.72623 5.14102 5.04117 5.02962 4.95296 4.77493
threshold=0.00054500000000000013 27.500000000000004 0.49950000000000006 0.99950000000000017 0.50050000000000006 0.0036500000000000005 11.500000000000002 0.35850000000000004 1.0000000180025095e-35 0.15550000000000003 0.12050000000000001 16.250000000000004 1.0050000000000001 337221.00000000006 140384.50000000003 10390.500000000002 12262.500000000002 0.26400000000000007 0.41112500000000002 0.0038500000000000006 3.6650000000000005 0.18312500000000001 21723.500000000004 14367.500000000002 1744.5000000000002 0.31250000000000006 21068.500000000004 7.9200000000000008 4.7550000000000008 45.500000000000007
decision_type=2 2 2 2 2 2 2 2 2 2 2 2 2 2 2 2 2 2 2 2 2 2 2 2 2 2 2 2 2 2
left_child=2 18 10 -4 5 6 -5 8 13 -10 17 -12 -6 14 25 -15 -17 27 19 20 26 -21 29 -8 -25 -3 -2 28 -1 -16
right_child=1 7 3 4 12 -7 23 -9 9 -11 11 -13 -14 15 22 16 -18 -19 -20 21 -22 -23 -24 24 -26 -27 -28 -29 -30 -31
leaf_value=-6.4655413844596487e-05 9.7532110809369819e-05 0.00034381276459864187 -0.00056978299405700643 -0.0022856120111459442 0.011788472320849652 0.01320063144665239 0.0096061804988921383 0.0058912210233051307 -0.0032518056773878502 0.0012109167700934649 0.002302700725322617 -0.001210678910485288 0.00042929920815236179 7.4192622942938712e-05 0.0027993142608131096 0.0026525067515105658 -0.00030787176218141903 0.0078772161180529331 0.0050577039952959951 -0.0031370531658895216 0.002748701627120289 0.00068466897067688808 -0.0020353069091210894 -0.021574314023163302 0.0069152181500842349 0.010497971612410874 0.0015277466611237104 -0.0017303371474336885 0.0030728023514676964 0.0012147305327178425
